,0,1,2,3,4,5,6,7,8,9,10,11,12,13,14,15,16,17,18,19,20,21,22,23,24,25,26,27,28,29,30,31,32,33,34,35,36,37,38,39,40,41,42,43,44,45,46,47,48,49,50,51,52,53,54,55,56,57,58,59,60,61,62,63,64,65,66,67,68,69,70,71,72,73,74,75,76,77,78,79,80,81,82,83,84,85,86,87,88,89,90,91,92,93,94,95,96,97,98,99,100,101,102,103,104,105,106,107,108,109,110,111,112,113,114,115,116,117,118,119,120,121,122,123,124,125,126,127,128,129,130,131,132,133,134,135,136,137,138,139,140,141,142,143,144,145,146,147,148,149,150,151,152,153,154,155,156,157,158,159,160,161,162,163,164,165,166,167,168,169,170,171,172,173,174,175,176,177,178,179,180,181,182,183,184,185,186,187,188,189,190,191,192,193,194,195,196,197,198,199,200,201,202,203,204,205,206,207,208,209,210,211,212,213,214,215,216,217,218,219,220,221,222,223,224,225,226,227,228,229,230,231,232,233,234,235,236,237,238,239,240,241,242,243,244,245,246,247,248,249,250,251,252,253,254,255,256,257,258,259,260,261,262,263,264,265,266,267,268,269,270,271,272,273,274,275,276,277,278,279,280,281,282,283,284,285,286,287,288,289,290,291,292,293,294,295,296,297,298,299,300,301,302,303,304,305,306,307,308,309,310,311,312,313,314,315,316,317,318,319
EH1(72),-0.036200285,-0.33305192,-0.008646315,-0.026054572,0.19419985,-0.017564772,0.20618688,-0.01694472,-0.48000556,0.021341426,0.2558303,-0.1991788,-0.06651613,-0.07672099,0.28381753,-0.38231316,-0.12981106,0.04508559,-0.06969103,0.14473115,-0.19060671,0.18549177,0.051835973,0.036688372,-0.106027,-0.04331461,-0.10770508,-0.05987161,-0.15718837,0.058660213,0.0826617,-0.082692206,0.0057370863,-0.40106735,-0.08753025,-0.25732204,-0.0051069222,-0.024015732,0.013579056,0.015424434,0.20654784,0.06980041,0.10751952,-0.121154375,-0.02856857,-0.068866536,-0.24070528,-0.07882696,0.13255732,-0.0026698413,-0.38709897,-0.116332024,-0.06966083,0.0056290487,0.048736073,-0.08865642,0.18645187,-0.2588692,0.40469304,-0.0916369,-0.07176431,-0.17980687,-2.5914586,-0.20273446,0.16534203,-0.12466902,-0.10894106,0.033753768,0.15374771,0.07310824,-0.12083929,0.020111911,0.04597099,0.21354768,0.06730008,-0.004296689,0.008877911,0.123644784,0.011852827,-0.097753786,0.059277378,-0.1089624,-0.122506514,0.24614559,0.26081088,-0.18355265,0.03180717,-0.08952159,-0.064998575,0.10430603,-0.17212735,0.040873963,0.16077492,-0.064263344,-0.14105049,0.1669998,-0.0013749758,-0.011140224,-0.3175181,0.24069874,-0.03289271,-0.054739777,-0.16071899,0.14815049,0.14644837,0.055187106,-0.012380351,-0.062944405,-0.06333658,-0.006079138,-0.04220534,-0.14992747,0.02669944,0.0298198,0.06803767,0.08164749,-0.08615228,0.27045453,-0.21481824,0.063747935,0.21502629,0.1923045,0.039518245,0.24335116,-0.060977865,-0.24555965,0.051612947,0.04759459,-0.2809129,-0.0956013,0.08122966,0.21001707,-0.03661898,-0.23586339,0.35298485,0.12748873,-0.04538098,-0.099245586,-0.08862878,-0.02653385,0.050640464,-0.2962053,-0.05454754,0.16402972,-0.18719704,-0.06183402,0.09452899,0.20524576,-0.21804194,0.2829109,0.07337131,-0.1083821,-0.28086913,-0.2732353,-0.013108363,-0.05353269,0.14405072,0.15337771,-0.09645275,0.050474625,-0.08709904,-0.042456314,0.28498673,0.019457309,-0.042755596,-0.16383605,0.21534681,-0.29911864,-0.012659967,0.026495766,0.15587263,0.20605974,0.09627257,0.08609495,-0.14181384,-0.0709594,0.15572086,-0.09694312,-0.066004,0.09100248,0.11140093,-0.09021032,0.13794994,0.10183763,-0.037275773,-0.00074127497,-0.24124357,0.34637287,0.017369896,0.001984988,-0.10755036,0.18897344,0.45259508,-0.065124884,0.32711965,0.0145732965,-0.13176976,0.16904882,-0.00041442056,0.24627277,-0.13550308,0.18093064,0.081293136,0.039608218,-0.09641718,-0.050393004,-0.07536187,0.33876494,-0.11725111,0.10665152,0.022980496,-0.24221621,-0.11084663,0.016383374,0.035523742,-0.03142131,-0.043699246,-0.17620336,-0.09198814,0.0887664,-0.22452924,-0.037265543,0.14460659,0.0751109,0.13772136,0.16580892,-0.09353662,-0.16992347,0.057282228,-0.16535726,0.0022112743,0.09517144,0.05041094,0.12593195,0.07995945,0.03823774,-0.19627652,0.04123896,0.10913684,0.043604963,0.04084213,-0.07296866,-0.051596154,0.034722757,-0.023168743,-0.054806262,-0.01865511,0.059895467,-0.0059590354,0.01709533,-0.17770018,-0.2961839,-0.1631236,-0.029961482,0.043436434,0.029087901,-0.011988846,-0.112910345,0.02378763,-0.28583148,0.04428537,-0.16193475,-0.014145203,0.14083834,-0.062463444,-0.082362466,-0.26990154,-0.1569103,-0.17242838,0.008622815,-0.021256372,-0.045391608,0.13086453,0.11405676,0.2812701,-0.026262086,0.100193426,-0.066487916,0.2221648,-0.11918833,0.2863336,0.13003977,0.32316273,-0.045045473,-0.022235954,0.046897605,-0.05095881,-0.2235819,-0.048466742,-0.057302035,0.15388867,-0.29596356,0.09580013,0.03968084,-0.06029667,-0.060082488,-0.08880854,-0.07299462,-0.08687936,-0.09908147,-0.13186176,0.08591489,0.29570016,-0.059930146,-0.055849154,0.008875049,-0.037152145,-0.27152708,0.09000907,-0.19581267,-0.104554474,-0.08294478,-0.06397184,0.13480571,-0.04042103,-0.13414477,-0.0064918622,0.27479726,0.11386051,-0.100676745
EH2(71),-0.019853145,-0.3030073,0.061549343,-0.065062925,0.19744727,-0.022208324,0.16260447,-0.026379233,-0.44858173,0.03296876,0.19354248,-0.15800701,-0.14219,0.016713917,0.28129357,-0.31036228,-0.10058982,0.035866693,-0.03872945,0.16945048,-0.2392656,0.20510185,0.023425879,0.010450566,-0.1653662,-0.0025383641,-0.1314318,-0.07182308,-0.105789244,0.101428844,0.023511482,-0.038094264,-0.00081815355,-0.34995937,-0.03499941,-0.23499346,-0.021112401,-0.03780428,0.028276825,0.01906885,0.20872845,0.060336463,0.13381095,-0.11819276,-0.01989825,-0.06353859,-0.23871985,-0.104219936,0.116964184,-0.009693661,-0.381871,-0.11845977,-0.075355224,-0.020357061,0.018367885,-0.07368333,0.24372317,-0.25629914,0.411839,-0.05954636,-0.08979877,-0.24270885,-2.7791123,-0.16950852,0.13167106,-0.111381546,-0.10055058,0.02389943,0.1251399,0.051451437,-0.12419848,0.078095146,0.1549249,0.21091379,0.07972327,-0.016930968,0.046301723,0.07161059,0.022997105,-0.120618396,0.07043771,-0.1402628,-0.097241,0.18497834,0.2781482,-0.22514959,0.05426178,-0.05413129,-0.03226212,0.079096474,-0.18574724,-0.015022531,0.17317985,-0.101515315,-0.18179964,0.14106725,-0.049851988,-0.0050198077,-0.26193878,0.17718518,-0.042163007,-0.06277894,-0.14372692,0.1538621,0.12707993,0.0777184,-0.012301301,-0.039741408,-0.059956755,-0.028009446,0.0017099645,-0.10149694,-0.012610976,0.078510046,0.069026954,0.013379303,-0.014322487,0.26207963,-0.18159771,0.0041310918,0.18177024,0.12965925,0.08438588,0.17802885,0.048940916,-0.2087152,0.019933147,0.019226689,-0.2557895,-0.04991717,0.10109538,0.22680798,-0.057133403,-0.26073858,0.342208,0.08198457,-0.044185296,-0.11341852,-0.06507963,-0.029887851,0.081640095,-0.28979903,-0.06086886,0.14821956,-0.1264476,-0.13159087,0.07295411,0.19337945,-0.22247426,0.29531693,0.09301551,-0.0880693,-0.29841438,-0.24218124,-0.0059946356,-0.07731056,0.14797728,0.10204929,-0.11612378,0.052243337,-0.068718694,0.009917646,0.29190692,0.009355291,-0.09449762,-0.16647375,0.1774439,-0.25367907,-0.005137515,0.04283688,0.06336773,0.16383256,0.120684594,0.044078022,-0.17082036,-0.0032764545,0.17519616,-0.09665022,-0.07090674,0.08097338,0.03699482,-0.13644788,0.10794566,0.13974068,-0.02568929,0.059042953,-0.26975065,0.32208976,0.003253023,0.020640677,-0.08203301,0.14123693,0.44004536,-0.04622907,0.29929924,0.008757452,-0.18412195,0.22724591,0.06186146,0.24475433,-0.17386203,0.15330108,0.05171781,0.08387745,-0.05715572,-0.05669054,-0.097240604,0.2897553,-0.13996296,0.12840818,0.04494137,-0.258463,-0.048140023,0.02199435,0.055139642,-0.047725305,-0.08659721,-0.20985685,-0.037005387,0.086193494,-0.17898384,-0.027111016,0.16699393,0.091200404,0.13817903,0.1316926,-0.07712947,-0.14839935,0.106454,-0.1646171,0.04542255,0.07094214,0.07606479,0.04664405,0.11105851,0.016474482,-0.21435754,0.03717462,0.10905704,0.04835889,0.031353116,-0.09667807,-0.03160291,0.0757925,-0.02011012,-0.011989017,-0.025761418,0.11554663,0.01601306,-0.024972145,-0.14480838,-0.21796004,-0.095001884,0.028477447,0.06454873,0.081462935,-0.050297648,-0.05935331,0.04299192,-0.2666256,0.10007323,-0.19616638,-0.04197029,0.0563863,-0.028038662,-0.10127639,-0.21518941,-0.19354884,-0.13078754,-0.024414659,-0.030088114,-0.027101742,0.114973955,0.11669282,0.24594782,-0.009246687,0.06664351,-0.063619666,0.15381698,-0.084334485,0.281936,0.11486308,0.25741276,-0.08819464,0.02872636,0.12104602,-0.06982469,-0.17474908,-0.053087555,-0.05801462,0.14869066,-0.2921382,0.084515914,-9.580674e-05,-0.046699625,-0.025872335,-0.05644325,-0.0662145,-0.12080989,-0.05406633,-0.14632802,0.081572436,0.27493653,-0.054085236,-0.056581605,-0.050749995,0.030082187,-0.3203125,0.026471052,-0.18101609,-0.16060734,-0.05387019,-0.085173085,0.19668527,-0.008502152,-0.14955811,-0.038559016,0.26241726,0.09626905,-0.04232816
EH3(69),0.060513075,-0.283065,0.07059967,-0.007391198,0.2400647,0.019588878,0.06553706,-0.08746422,-0.27896515,-0.025695676,0.13559054,-0.09785304,-0.15626173,0.06270044,0.18239331,-0.27943793,-0.024825878,-0.012286331,-0.0036422415,0.13204345,-0.13714154,0.18182501,0.0016893373,0.05110103,-0.18151863,-0.0397566,-0.19894627,-0.15394983,-0.08005583,0.11487528,-0.03605522,0.07999735,0.07729675,-0.28960907,-0.0156161785,-0.22586726,-0.088335834,-0.07141957,-0.0140516935,0.039054096,0.14764084,0.023695465,-0.0068005016,-0.09145181,-0.01255486,-0.022315972,-0.36583826,-0.08440785,0.06350268,-0.06037991,-0.25971696,-0.08300875,-0.010591428,-0.06834291,-0.11572172,-0.040815204,0.24845323,-0.26368976,0.42096558,0.03096045,-0.1260304,-0.21491823,-3.0895672,-0.18736723,0.10105357,-0.08272009,0.041186605,0.06462185,0.16043141,0.1497621,-0.15223604,0.09795992,0.18906224,0.20870766,0.0594552,0.045578454,0.01176986,0.074174106,-0.0041702613,-0.09142989,0.040611114,-0.12036008,-0.061575882,0.113540776,0.2032709,-0.19983438,0.08893285,-0.12797162,-0.004104024,0.02459648,-0.19695555,-0.036890883,0.25738764,-0.0688414,-0.16540867,0.10063602,-0.046387155,-0.024594791,-0.22119227,0.09030065,-0.040187385,-0.06120213,-0.17665398,0.076516174,0.13228108,0.0016517761,-0.03495701,-0.05710504,-0.090346344,-0.068698175,-0.07368054,-0.03517753,0.023434922,0.0023828626,0.013994735,0.08021273,-0.0019729733,0.30403998,-0.14388482,0.016589884,0.21854167,0.14618571,0.0238363,0.103276014,0.11950227,-0.21059532,0.021990143,0.06714579,-0.28574577,-0.19576372,0.156092,0.23136762,-0.07237121,-0.27849123,0.39111912,0.08155201,-0.015746845,-0.026770983,-0.12107971,-0.09822968,0.1086038,-0.25998878,-0.018263692,0.1579618,-0.113862045,-0.1593467,0.12320973,0.2237531,-0.23202138,0.24840024,0.054040134,-0.09985227,-0.34341094,-0.23617809,-0.0031720283,-0.05855146,0.10052045,0.095786914,-0.113346554,0.118986376,-0.021570502,-0.02862689,0.27225366,-0.047418017,-0.08576268,-0.09217807,0.2285113,-0.22145958,0.001225416,0.015718294,-0.060849473,0.11929785,0.16477355,0.063511856,-0.16625458,0.07970939,0.1402394,-0.02373454,-0.06955949,0.0004951748,0.030566106,-0.15156691,0.03689984,0.114717126,-0.036613937,0.09540613,-0.29239848,0.351573,-0.0437064,0.09175318,-0.023644688,0.16424373,0.35170797,-0.081930704,0.27050284,0.046947807,-0.15015799,0.2133474,0.016340608,0.223697,-0.12573986,0.16195007,0.054527964,0.17400007,-0.06366471,-0.059310906,-0.06508655,0.084302075,-0.1882193,0.04825154,0.062935404,-0.31870565,-0.03715336,0.019884013,0.050939593,-0.098993964,-0.03454166,-0.20891832,-0.05586868,0.12877941,-0.19634967,0.016959082,0.17821759,0.08679254,0.08362211,0.13617156,-0.016754098,-0.10852273,0.06272816,-0.22841905,0.12459021,0.064093575,0.088925295,-0.06942226,0.0974589,-0.0335807,-0.13430658,0.008693934,0.110215455,0.07915705,0.07701513,-0.05607319,-0.109806776,0.065906934,0.0049290205,-0.003463604,0.024371453,0.094627835,-0.030784147,0.0096136965,-0.102763936,-0.21630205,-0.09436076,0.028464694,0.015940838,0.12513436,-0.09301732,-0.0056100073,0.09009184,-0.2156226,0.12878866,-0.083547354,-0.038395226,0.008108196,-0.018286139,-0.08352416,-0.091473,-0.24553536,-0.0145741375,-0.058429334,-0.028729193,-0.023927422,0.04317618,0.015419728,0.21939959,0.00012180907,0.06807902,-0.028986156,0.14247413,-0.06539037,0.25931647,0.07468696,0.2900063,-0.07494503,0.16370077,0.17343006,-0.03127589,-0.15356393,-0.022170344,0.029710142,0.09824331,-0.20495728,0.085168876,0.05587287,-0.0103191985,0.024881829,-0.12599938,-0.06439097,-0.096370205,-0.052676495,-0.14514846,0.07934957,0.31247267,-0.02203042,-0.10141198,-0.025577381,0.031337913,-0.2918486,0.0030813492,-0.1748624,-0.14223664,-0.0360825,-0.112095706,0.20669091,0.031099586,-0.12790088,-0.085708365,0.25747377,0.05468496,-0.010790004
CalB(68),0.019979928,-0.13059022,0.08183992,-0.041740067,0.23982063,-0.036236912,-0.10042772,-0.08786808,0.03854714,-0.12672828,0.17283666,0.15078719,0.07690426,0.08183593,0.23283851,-0.16354904,-0.04460296,0.119803034,-0.19466987,0.1702167,-0.106410414,0.24613199,0.042523064,-0.06458141,0.06332616,0.15914333,-0.054974556,-0.14541319,-0.13420032,0.12920953,-0.216946,-0.13038968,-0.033342406,-0.07880876,0.16025513,-0.15170676,0.062262677,-0.16444889,0.011610394,-0.021876259,-0.15567783,-0.071320415,0.16710037,0.026474005,-0.12105958,0.09975466,-0.7041815,0.12900288,0.06760467,-0.077723496,-0.11955455,0.047790993,-0.1753228,0.010723676,-0.07092407,-0.1169794,0.10172836,-0.066576,0.06539791,0.1381794,-0.13655223,-0.23515612,-4.508776,-0.41823712,0.07253869,-0.19182733,-0.08333847,0.17921743,0.09871925,0.19208093,-0.05551749,0.2231114,0.05883093,-0.01093168,0.10310978,-0.17102228,0.04695563,0.09179381,-0.063076705,-0.13095263,-0.013236693,-0.05323404,0.022343798,0.19213444,0.048017778,-0.22754613,0.16432296,-0.1551664,-0.09378635,0.16524486,-0.10611485,0.00086269656,0.10863187,0.08721271,-0.23283756,0.32803538,0.0122613,0.043660466,-0.1404075,0.051266473,0.1074222,-0.028294286,-0.16518797,-0.0667748,-0.00074851955,0.017010706,-0.10624988,-0.03880829,-0.019975597,0.03227427,-0.014123981,0.00036150566,-0.112630256,0.023866918,0.021835128,0.0628698,0.16741562,0.15217705,-0.11808354,0.058763508,0.13709924,0.0020520955,0.17732427,0.23271623,0.06142671,-0.06552157,-0.036035366,0.0274317,-0.27674285,-0.039913807,0.16346702,-0.19286421,-0.02260954,-0.2809846,0.30470753,0.08274008,-0.2428053,0.31103578,-0.032652088,0.094445586,0.14963633,-0.14712022,0.045707714,-0.078417726,0.03535423,-0.18167587,0.06712003,0.15450361,-0.40118676,0.1544646,-0.084695585,-0.11529424,-0.08480471,-0.0706855,0.084632844,0.06612119,0.044215713,0.085944675,-0.09184774,0.24758065,-0.16707915,-0.005319053,0.12690021,-0.08405899,0.0628274,-0.13389981,0.20485507,-0.06348109,0.22453548,0.028145732,0.22958045,0.007488829,0.046380036,-0.09515787,0.22636148,-0.049968366,0.0072840536,0.052210696,0.043779112,0.026821708,0.2937634,-0.23646389,0.0107181305,0.06932194,0.010254237,0.18161131,-0.21789765,0.40427452,0.0141047295,-0.20077604,-0.042834703,0.13144782,0.14986849,0.16191782,0.025633194,0.21739367,-0.14811993,0.19857438,0.16018991,-0.042319942,-0.23867093,0.22289386,0.1654445,0.044975396,-0.027152164,0.045037385,-0.05746972,0.35567975,-0.22506247,0.18841536,0.06645709,-0.21223657,-0.22035377,0.046532325,-0.012801209,-0.020098729,-0.059779365,-0.121200584,-0.0038605046,0.13070501,-0.20635785,-0.22983827,0.11126853,0.007768273,0.017828215,0.053847272,-0.039762285,-0.096125916,0.017287241,-0.05392563,0.14326836,-0.12460653,0.08713562,-0.11441311,0.15573752,0.15027305,-0.16062763,0.0062913788,0.16403694,0.065595254,-0.009300673,-0.10248213,0.0831351,0.026890125,0.03893136,0.033979956,0.22310676,0.039739188,-0.086773224,0.1613058,0.09172091,-0.07439002,0.00688003,-0.055293374,0.027621381,0.19443539,-0.15064609,0.13752952,0.007765941,0.10141074,0.09612434,-0.040122487,0.00068174535,-0.06294157,0.123001665,-0.009496829,-0.10458788,-0.17943744,0.12077812,-0.093423896,-0.07610433,-0.026860919,0.04807112,-0.016128117,-0.06543535,0.12281822,-0.089088544,-0.026342867,0.06510407,0.04844127,0.05795791,-0.046735063,0.21300854,0.077243924,0.22209218,0.32234824,0.0023087391,-0.20334387,0.012981365,0.11353103,-0.016377758,-0.035560966,0.13135125,0.12823278,-0.02919086,0.15119877,-0.32586715,0.058473203,-0.1927266,0.05529211,-0.123024434,-0.01979955,0.017986385,0.081489466,-0.08766846,-0.3069122,0.015429998,-0.3076138,-0.13545275,-0.041355718,-0.18810275,-0.031604912,0.047454152,0.067839876,-0.082707874,-0.23056006,-0.22344083,0.27239996,-0.10394385,0.025445784
EH4(67),-0.025639059,-0.29324707,0.113069996,-0.05565081,0.18543996,-0.030515352,0.11096402,-0.043669418,-0.42764127,0.0247909,0.18533902,-0.1522327,-0.0951804,0.015026198,0.26134074,-0.31904286,-0.061782148,0.042547774,-0.05393881,0.14490545,-0.20038728,0.22013675,0.05617134,0.050944556,-0.15203738,0.007823721,-0.1261842,-0.10129431,-0.15364592,0.0820421,0.010839412,-0.07063355,-0.0046072616,-0.3429746,-0.039532404,-0.2849259,0.005325205,-0.05347528,0.007893648,0.021760104,0.17280796,0.057346392,0.12130611,-0.1197661,-0.023757663,-0.07749649,-0.25905025,-0.08297213,0.11684043,0.004367973,-0.35695857,-0.111776754,-0.09393338,-0.005061245,0.0017262669,-0.092465974,0.23487513,-0.27309534,0.3945764,-0.038523402,-0.075253084,-0.25143456,-2.8480244,-0.18265152,0.11159616,-0.113213584,-0.082640216,0.029870512,0.13217327,0.064256005,-0.10679654,0.097877145,0.15758117,0.20037392,0.089710124,-0.0048381477,0.048475403,0.08973344,0.029398551,-0.10435968,0.054027367,-0.08511321,-0.08067956,0.14939909,0.24128768,-0.20725495,0.054741792,-0.08081968,-0.037480347,0.091360055,-0.17858152,-0.033582214,0.15952697,-0.105556734,-0.16393098,0.14371775,-0.024754563,0.008613811,-0.27497482,0.16764167,-0.027560838,-0.050278895,-0.16753536,0.10779002,0.14798735,0.03273861,-0.024494909,-0.043732323,-0.053782165,-0.0116874995,0.0015135983,-0.08188198,0.016454987,0.10547639,0.06949781,0.019529091,0.004592362,0.26815376,-0.21320288,-0.0066395015,0.15743151,0.095800154,0.046308026,0.1706508,0.061513152,-0.21092455,0.023960687,0.027029505,-0.23086752,-0.054636136,0.105313234,0.18189171,-0.04207653,-0.27194995,0.32464388,0.1113745,-0.054090977,-0.0747689,-0.057598636,-0.009921332,0.08526344,-0.28457955,-0.03302949,0.13201594,-0.12347022,-0.13909389,0.083239146,0.15685312,-0.21955708,0.31965,0.066153005,-0.117204055,-0.31273505,-0.24368814,0.022186026,-0.029956535,0.088938594,0.12585658,-0.12645829,0.029201973,-0.09105026,-0.0012130031,0.2727087,0.013115902,-0.09479414,-0.17291063,0.22323982,-0.260294,0.033926643,0.06674884,0.06997837,0.1732654,0.144035,0.04844071,-0.14304394,-0.007817721,0.13682412,-0.0872601,-0.042719107,0.049666576,0.040577468,-0.12078915,0.074097686,0.117305845,-0.011597426,0.08117817,-0.26435918,0.32638898,-0.014186133,0.014856751,-0.084126286,0.16631226,0.45283902,-0.06495106,0.2892375,0.010859234,-0.17138399,0.25122315,0.10516292,0.25615472,-0.17534888,0.14125761,0.04255029,0.070210226,-0.036935896,-0.033777177,-0.10021122,0.28014204,-0.18501554,0.13648951,0.026888287,-0.24057993,-0.04548242,0.012656107,0.031930007,-0.06291776,-0.08282469,-0.20535928,-0.04273752,0.09969461,-0.16824096,-0.034590594,0.18778437,0.11327238,0.11609448,0.11929835,-0.07043464,-0.15363066,0.08943459,-0.12850279,0.05792499,0.07186713,0.06448204,0.030559182,0.085842386,-0.0036956668,-0.22748521,0.007617899,0.110153295,0.04203287,0.039476473,-0.080101974,-0.046715837,0.09840216,0.0060557695,-0.031153155,-0.021160405,0.12668206,0.011378682,-0.0019395455,-0.111446835,-0.2184207,-0.09692445,0.04048826,0.0856056,0.10917591,-0.06384272,-0.05039784,0.06927034,-0.24109232,0.108500324,-0.1556035,-0.021263521,0.025174942,-0.03338742,-0.11541158,-0.19833933,-0.19089317,-0.093542196,-0.04945801,-0.03758932,-0.053298417,0.11014012,0.1139793,0.21916988,-0.039690368,0.060656875,-0.039660215,0.17689118,-0.066340394,0.30645958,0.10988126,0.23332565,-0.08564328,0.06934904,0.14167024,-0.08867867,-0.21413553,-0.039352223,-0.053484373,0.14164592,-0.2513683,0.106667764,0.033214822,-0.0536676,-0.004460418,-0.10752515,-0.06695999,-0.11529462,-0.0719142,-0.13549665,0.086571574,0.2611035,-0.059584197,-0.057199877,-0.09134745,0.0379951,-0.30214506,0.019953307,-0.16774987,-0.17149642,-0.09049453,-0.07472715,0.18707244,-0.017983599,-0.16055109,-0.068075724,0.26314458,0.088770546,-0.039314374
EH5(67),-0.027505971,-0.33339363,0.08016486,0.011732084,0.22241865,0.050460998,0.19598924,-0.010398496,-0.3186586,-0.03278654,0.22843963,-0.159287,-0.07431148,-0.009448676,0.21317354,-0.3587153,-0.11537401,-0.03510048,-0.0433131,0.104379125,-0.15444481,0.17267546,0.16211265,0.09053402,-0.10169681,0.004510056,-0.110394485,-0.15971795,-0.16106771,0.060911857,0.074607745,0.025291387,0.006286847,-0.30825904,-0.04243181,-0.23843066,-0.09472313,-0.08127202,-0.045402385,0.076286085,0.1818808,0.054164972,0.06513225,-0.14164434,-0.009144057,-0.028220156,-0.24057065,-0.09322941,0.117894635,-0.005515192,-0.32980594,-0.12271062,-0.13033473,0.039853543,-0.06456578,-0.06816391,0.21012002,-0.30473465,0.43756744,-0.059405185,-0.031501826,-0.22077675,-2.53429,-0.21345279,0.16819496,-0.11570083,-0.12714246,0.057507865,0.11263682,0.11103369,-0.12372546,0.09180502,0.11777729,0.22436078,0.15243988,0.052096874,0.0020957747,0.067256056,0.023830514,-0.09143971,0.09721493,-0.13146,-0.05203665,0.242141,0.291652,-0.17658849,0.008164262,-0.13157283,-0.0646532,0.1387457,-0.2160954,-0.010986033,0.20573126,-0.11940256,-0.14953555,0.19472107,0.014001356,0.01757195,-0.27497625,0.18548906,-0.041998036,-0.06064135,-0.1255531,0.12705049,0.11011098,0.015004444,-0.02761572,-0.088086784,-0.12979719,-0.035405792,-0.07048431,-0.12359369,-0.0078493105,0.058078814,0.040725037,0.050450977,-0.04657281,0.2507877,-0.22775985,-0.04552496,0.19599421,0.15865022,0.064998254,0.118195355,0.029499084,-0.20573556,0.066323675,0.10238605,-0.3145601,-0.049275756,0.14346394,0.23972571,0.01596043,-0.29068124,0.3371516,0.15612195,-0.09191095,-0.014387157,-0.09216845,-0.087052375,0.07823158,-0.23665133,-0.051061414,0.08255704,-0.17352326,-0.13916221,0.11985709,0.17681001,-0.22079134,0.31732547,0.074719146,-0.14180554,-0.3315288,-0.2850578,-0.02173095,-0.045971658,0.091605775,0.16381592,-0.115234666,0.03328887,-0.076206595,-0.008482284,0.24667838,0.019990249,-0.032054443,-0.16816111,0.2291084,-0.2866538,0.04581256,0.06589922,0.06405008,0.20614906,0.18587294,0.07299103,-0.23924655,-0.00952213,0.1861441,-0.1605955,-0.051068194,0.1131155,0.016747653,-0.18804096,0.18744494,0.18578213,0.009672191,0.026645916,-0.27561215,0.37031996,-0.05685013,0.0072688465,-0.06438866,0.17014524,0.38722005,-0.06737917,0.37184188,0.003098763,-0.119270205,0.24163145,0.016521312,0.31252345,-0.16534725,0.10781477,0.045879267,0.08765988,-0.044350564,-0.063051656,-0.09865893,0.18586516,-0.22338659,0.00059630343,0.014583818,-0.26749817,-0.06094817,0.03975794,0.016975734,-0.07843589,-0.06948661,-0.22237961,-0.091121085,0.1093846,-0.24557258,-0.042446464,0.12857705,0.12567557,0.13908646,0.08130955,-0.03137989,-0.17694654,0.077857025,-0.1444041,0.043029815,0.020869961,-0.01562668,-0.019766083,0.045242935,0.0066576814,-0.22054102,0.026783796,0.107375376,0.03895038,0.09295285,-0.09047881,-0.08456889,0.0956209,-0.02029641,-0.06654631,-0.0012589943,0.10951119,-0.064425014,-0.020766232,-0.18531124,-0.20857808,-0.18060462,0.031358264,0.06916992,0.058492076,-0.07122863,-0.037576105,0.11497919,-0.3165253,0.039716225,-0.13678312,-0.0072190166,0.0490314,0.018803021,-0.047424167,-0.20428665,-0.19368955,-0.053626034,-0.018620819,-0.056064837,-0.044434782,0.115441,0.075191654,0.22699006,-0.03728462,0.020578511,-0.017801097,0.18566212,-0.10372048,0.38314584,0.11778876,0.29044583,-0.075477235,0.054690626,0.12084995,-0.04577574,-0.21937595,0.030292196,-0.029641965,0.071378484,-0.29394856,0.1303618,0.080490746,-0.04034769,-0.0167457,-0.12711842,-0.00072377466,-0.04353465,-0.123644195,-0.16802292,0.0506611,0.27486074,-0.048251033,-0.0849927,0.009775023,-0.008587775,-0.279857,0.07070335,-0.14074245,-0.13354005,-0.07239276,-0.0988181,0.14037839,0.013754161,-0.19574481,-0.08108875,0.26268834,0.06928579,-0.09057009
EH6(66),-0.07954468,-0.35545427,0.038672633,-0.03731752,0.16574655,0.030342545,0.18075593,-0.032917988,-0.44053987,0.051398553,0.19814381,-0.17340691,-0.06025375,-0.017950553,0.27810714,-0.35242316,-0.12257464,0.06104218,-0.07216937,0.11077004,-0.20026886,0.16250648,0.05606705,0.08829889,-0.14454605,-0.007416307,-0.11253095,-0.11278924,-0.19150598,0.061886113,0.023213368,-0.12771162,-0.042488527,-0.36363164,-0.05130209,-0.27431342,-0.016882593,-0.0659614,-0.048326965,0.033211928,0.19368248,0.057619534,0.16230088,-0.114175886,-0.021434672,-0.07095727,-0.15527968,-0.09324837,0.14063504,-0.023882385,-0.33375892,-0.10830089,-0.14368404,-0.018818798,0.018534081,-0.055281635,0.21752381,-0.2729786,0.44847143,-0.06745456,-0.079587005,-0.24869995,-2.5773797,-0.21671702,0.13707772,-0.14426677,-0.108987376,0.01577207,0.12751567,0.084572576,-0.14303572,0.115956955,0.15347853,0.219357,0.13771978,0.0108934445,0.04712229,0.12505527,0.008312197,-0.12967318,0.049453318,-0.13924819,-0.055483375,0.19228788,0.263423,-0.24100585,0.055430304,-0.05253316,-0.0726332,0.13357265,-0.19516447,0.019528393,0.17171642,-0.13738945,-0.17021513,0.19172545,0.0045966646,0.014347693,-0.29439327,0.17933851,-0.022742918,-0.068320185,-0.16725738,0.10868658,0.14711086,-0.0044659264,-0.052693963,-0.062939234,-0.03760508,-0.0040903166,-0.05028706,-0.10025658,0.00061823305,0.065246716,0.08451723,0.065160125,-0.025138415,0.25355676,-0.21302193,0.0005289043,0.20500776,0.121333644,0.051636368,0.18490921,0.010680843,-0.18872146,0.033252545,0.021695549,-0.26915222,-0.08791157,0.080172464,0.22452502,-0.045446426,-0.3149202,0.3458441,0.13220493,-0.073238105,-0.056381688,-0.029370323,-0.018841168,0.082713544,-0.28612903,-0.008513319,0.104097806,-0.1885967,-0.1454902,0.078347825,0.20936026,-0.2577743,0.31737533,0.08209128,-0.0985635,-0.32850423,-0.26637185,0.017206023,-0.0725591,0.12593451,0.14599696,-0.12415768,0.032607645,-0.12211986,-0.03312468,0.20968744,-0.0037597609,-0.06566459,-0.16454495,0.19243929,-0.26516193,0.010535885,0.060657855,0.11802653,0.16099614,0.13632086,0.08458192,-0.14661148,-0.0482706,0.13611557,-0.13679527,-0.043093946,0.1710559,0.065738425,-0.11470983,0.087827966,0.16910955,-0.025643373,0.05256006,-0.2386517,0.41336584,-0.026439821,0.025926314,-0.1058779,0.13081424,0.44976643,-0.07639845,0.37286192,0.012556091,-0.107085586,0.26719162,0.039426044,0.27312568,-0.17876557,0.08616903,0.029574182,0.064558245,-0.05356644,-0.052014552,-0.099525094,0.31346455,-0.19296275,0.110854,0.020897273,-0.24159436,-0.03233311,0.013711984,0.039411925,-0.017393578,-0.111245416,-0.25021732,-0.08433826,0.1088505,-0.22754776,-0.07484131,0.170893,0.105027705,0.13359655,0.13660863,-0.007408627,-0.19141743,0.09847204,-0.15752475,0.05286051,0.006320744,0.04071824,0.041396253,0.08344985,0.007184733,-0.23641735,-0.00016077992,0.10797304,0.03296377,0.045260344,-0.10449976,-0.026540477,0.09734906,-0.06853269,-0.049322877,-0.08412888,0.12278645,-0.014953153,-0.013753654,-0.14493848,-0.27003264,-0.10299659,-0.0071247583,0.06799093,0.12219991,0.0036876365,-0.08488606,0.035409193,-0.22170907,0.088412836,-0.13149735,-0.028977903,0.08371005,-0.0024683946,-0.08407306,-0.19520774,-0.1436399,-0.09804332,-0.008055179,-0.048435733,-0.058658894,0.13132937,0.094864376,0.22599934,-0.024004227,0.0735114,-0.045154214,0.20138684,-0.035651803,0.29294094,0.14684252,0.25990218,-0.06531481,-0.0168621,0.10700542,-0.08355025,-0.19804238,-0.029041825,0.017206226,0.18567117,-0.27024135,0.110298134,0.059171822,-0.09496937,-0.015746806,-0.061984733,-0.059071712,-0.06860745,-0.11973795,-0.15744096,0.049324855,0.2866294,-0.029022783,-0.06516294,-0.0022430625,0.031680662,-0.34653297,0.06966557,-0.16585553,-0.13638753,-0.11343308,-0.09513554,0.19966741,-0.051897537,-0.15288037,-0.067721866,0.29838225,0.05205477,-0.084258
EH7(64),-0.035417356,-0.13794695,0.21727937,0.084842786,0.18393993,-0.27557704,0.12470838,-0.021597529,-0.30807766,-0.033803456,0.12097551,-0.22323363,0.018642321,0.11533081,0.30409396,-0.4664431,-0.25076804,0.13299246,0.12395233,0.09878098,-0.13513002,-0.10404478,-0.09871776,0.029558087,-0.07826689,0.017810853,-0.12053671,0.029439721,0.15056054,-0.1125288,0.2251098,0.11514258,-0.1267365,-0.45091793,-0.13571689,-0.2965015,-0.02707146,0.21683525,-0.021901792,0.06514026,0.058645193,-0.06841565,0.09746076,-0.14249569,-0.21004131,-0.029139465,-0.6007238,0.15312405,0.03953082,-0.11522908,0.021328684,0.052299015,0.02581229,0.13994926,-0.024272038,-0.19015725,0.22906883,-0.15093791,0.35157186,-0.0712933,-0.18489413,-0.16494617,-2.7217064,-0.22162125,-0.010961194,-0.07916089,0.15510924,0.10276512,-0.05430633,-0.0046107974,-0.023950187,-0.07735393,0.09155782,0.37590772,-0.11328727,-0.09350891,-0.15767932,0.09798436,0.012404813,0.030429885,0.21207823,-0.018715959,0.18439199,0.35063237,0.15517859,-0.24849379,-0.13833202,0.18099715,-0.117806755,0.25557536,-0.23735362,-0.13344213,0.08134717,0.06234269,-0.33425978,0.13022125,0.08019767,-0.017913232,-0.1500423,0.20330554,-0.027841615,-0.037208054,-0.12634653,0.18194357,0.0468403,0.17962569,-0.07993776,-0.13686782,-0.097390234,-0.0074093943,-0.22993636,0.04705294,0.047144227,-0.032019217,-0.12620988,-0.042246487,-0.13128321,0.1766772,-0.12820785,-0.28621933,0.035601955,-0.12763654,-0.07678256,0.119053915,0.16719833,-0.07865363,-0.014545227,-0.11931677,-0.14002468,-0.08635519,0.1010839,-0.08271479,0.12977085,-0.16279627,0.47253832,-0.06326091,-0.33307296,-0.22327912,-0.010508725,-0.23277101,0.3103259,-0.07789241,-0.13434865,0.26380092,-0.013563439,0.041209076,-0.1339602,0.11228683,-0.14311163,0.29919472,-0.07046038,-0.13126542,-0.43775773,-0.3686486,-0.06260423,-0.13292642,-0.032030057,0.1708426,-0.07004459,0.1323103,-0.034567505,0.03881486,0.36703482,-0.03553675,-0.15164147,-0.0044376277,0.057966694,-0.2570321,0.09133548,0.046906695,0.12859422,0.105086364,0.12882903,-0.039029855,-0.011130433,-0.012367723,0.20120202,-0.31298673,0.07084077,0.14367145,-0.08226022,0.026231028,0.16134332,0.13404709,-0.31708336,0.03231493,-0.24272048,0.31332055,0.014784777,0.05994963,-0.18810886,0.1211683,0.5110142,0.20930947,0.3544017,-0.11594493,-0.10424257,0.15045156,0.2001571,0.11974559,0.093729444,0.34330583,-0.007634473,-0.0317514,-0.28954366,0.17278084,-0.144743,0.14135298,-0.06701454,-0.032406736,0.11364331,-0.19101411,0.010677263,-0.23336603,-0.0002461228,0.08268099,-0.155557,-0.0789055,0.12615204,0.12885778,-0.49248138,-0.038740095,0.44039434,-0.107876875,0.04245903,-0.085872225,-0.08398943,-0.3547658,0.027870374,-0.19990268,0.17504217,-0.0018538268,-0.08363732,0.06157667,0.039841283,0.075675085,-0.17465816,-0.21559848,-0.054530527,0.22241622,-0.02028691,-0.06261909,0.025080325,-0.20094769,-0.0909002,-0.24117029,0.07577632,0.05267744,-0.011895282,0.08978363,-0.31723073,0.058277283,-0.07334675,0.12088217,0.00848909,0.06911449,-0.03598245,-0.1857643,0.1430154,-0.13039921,-0.09070125,-0.19988443,-0.007529485,-0.11248846,-0.15575743,0.02755275,-0.23328632,-0.1253361,-0.051441006,-0.043497656,0.17414562,0.34776086,0.05546491,0.05930182,0.1726956,-0.012898622,0.15800324,-0.12856609,-0.0042583477,0.058299053,0.06599966,-0.08248055,0.2677802,0.11372366,0.16121145,0.07595759,0.0134727545,-0.04650569,0.34201843,0.14698578,0.09315569,-0.02005936,0.12421787,0.02060726,0.17689659,-0.094738804,-0.04227515,0.09770578,-0.2254959,-0.067469224,-0.0007868251,0.095556274,0.027557842,0.07342128,0.19412522,0.18159062,-0.11166933,-0.15238002,0.054640062,-0.07917747,0.07893724,-0.092972554,0.083587624,0.17948051,-0.06060005,-0.14172803,-0.15622452,0.41751254,0.026169907,-0.14917603
EH8(63),-0.04013916,-0.33820316,0.010444108,-0.11134856,0.17681994,-0.059997037,0.15289895,-0.009948067,-0.35279098,0.025593746,0.2343202,-0.183986,-0.09085429,0.009099842,0.25271687,-0.32958874,-0.099491306,0.009431019,-0.015924541,0.17334276,-0.1446734,0.18624763,0.11922787,0.057277802,-0.114130355,-0.040634762,-0.089653306,-0.06903064,-0.11530896,0.049515758,0.062825374,-0.15327075,-0.079398796,-0.40709758,-0.077384524,-0.26049927,0.049745936,0.0016219574,-0.0668355,-0.028640023,0.1894814,0.04677322,0.2219741,-0.107155465,-0.034900647,-0.10786316,-0.26910603,-0.05643134,0.103924416,-0.031172073,-0.34268302,-0.05938613,-0.07743719,0.07178192,0.022018995,-0.10766184,0.19998609,-0.24881239,0.332979,-0.07533931,-0.078336604,-0.23093046,-3.0542471,-0.23205127,0.08472466,-0.13401689,-0.040491696,0.04715984,0.099148996,0.045640573,-0.10904734,0.08559972,0.19136478,0.24929534,0.078963846,-0.0119250985,0.029333076,0.09144056,-0.0123366425,-0.08202861,0.029783908,-0.041092202,-0.039849058,0.18714124,0.18322118,-0.15038268,0.012897769,-0.054662284,-0.096291766,0.04895768,-0.19848402,-0.01275458,0.10570615,-0.005743106,-0.19801708,0.14019221,-0.010644645,-0.012853833,-0.21151108,0.18560751,-0.010335657,0.0072432216,-0.11101228,0.10679919,0.15908319,0.040039178,-0.061310403,-0.07142783,-0.043945123,0.015028676,-0.025759151,-0.0913761,0.021154016,0.021401782,0.054692496,0.0917813,-0.050255843,0.27602628,-0.2213464,0.0468802,0.17949377,0.070086755,0.095005766,0.20041962,0.029985055,-0.25083798,0.064921945,-0.058316734,-0.20754123,-0.047780253,0.12801029,0.15080756,-0.023566542,-0.22208472,0.29529828,0.055144,-0.052936167,-0.11751115,-0.0052223615,0.016331157,0.041967623,-0.24278969,-0.069202766,0.09779127,-0.1889744,-0.047283728,0.050110467,0.19641232,-0.2040954,0.27507943,0.07651387,-0.089845024,-0.24086171,-0.2596444,-0.015125687,-0.039068174,0.18643889,0.08021137,-0.12504433,0.0061018514,-0.09678681,-0.03811086,0.25914,-0.014012172,-0.041945044,-0.24564956,0.18195921,-0.23012042,-0.016048362,0.101700604,0.15890476,0.13279232,0.13968903,0.0771752,-0.092134416,-0.00576684,0.097784445,-0.0556043,-0.02275231,0.060333684,0.09935822,-0.050823495,0.13024327,0.114736736,-0.03368626,-0.014201743,-0.22739588,0.29371205,-0.005925678,0.0321585,-0.077640295,0.1170808,0.53591686,-0.02972399,0.3184026,0.02296768,-0.070001245,0.18138291,0.07512536,0.2887142,-0.16498584,0.051844083,0.0658236,0.10188489,-0.02013942,-0.03660871,-0.16801204,0.36773294,-0.07646576,0.12642647,0.056844544,-0.20651056,-0.12515567,-0.059311166,0.053545248,-0.0013122614,-0.06548402,-0.1486725,-0.06738436,0.104432195,-0.22587758,-0.04418974,0.16638303,0.08699916,0.09005598,0.15427364,-0.12293073,-0.16518266,0.08374655,-0.109517254,0.06373382,0.00573784,0.023496306,0.112016015,0.054069232,0.042351793,-0.22219689,-0.008316522,0.06808469,0.037358884,0.0030534603,-0.090018176,-0.031206518,0.07870671,-0.025788803,-0.025242606,-0.018895935,0.08951491,-0.021835629,0.037653565,-0.16494341,-0.2987438,-0.085295565,0.054679304,0.117598735,0.13635243,-0.022858081,-0.049790736,-0.015972085,-0.19213119,0.10526014,-0.104822755,-0.08705475,0.0764939,-0.058279525,-0.09233253,-0.15784456,-0.18043949,-0.17135525,-0.038541652,-0.0665607,-0.06820356,0.15865745,0.11429657,0.25038022,-0.06895784,0.07453366,-0.07139392,0.17612462,-0.104486555,0.2707846,0.114553384,0.24654938,0.020956106,-0.003239848,0.07841468,-0.07206454,-0.21307632,0.005439936,0.04127983,0.14278223,-0.26524144,0.11266705,-0.0018452222,-0.07985941,-0.048797313,-0.098304026,0.024979616,-0.07215375,-0.09607805,-0.11024096,0.024007462,0.24256231,-0.06520002,-0.010449318,0.013888808,-0.051056065,-0.26643792,0.071145155,-0.13456105,-0.10472927,-0.12004877,-0.071430884,0.20672186,0.008174572,-0.10766883,-0.041836783,0.23432527,0.051039696,-0.11049011
EH9(61),-0.020700827,-0.34050548,0.04990064,-0.016298959,0.22672023,0.008324477,0.22239462,0.007654056,-0.33121783,-0.0077020098,0.2801688,-0.17875482,-0.118482344,-0.019302452,0.23357016,-0.38151616,-0.096421346,-0.03507024,-0.021952387,0.1271514,-0.15084289,0.17356904,0.10489188,0.06062593,-0.12172974,-0.024880439,-0.1375647,-0.15251513,-0.12381713,0.05504896,0.06321498,0.009748127,0.02145429,-0.37509838,-0.05216753,-0.20208152,-0.051571753,-0.03223658,-0.06563695,0.023827676,0.20014426,0.075892575,0.09045673,-0.11566491,-0.02004553,-0.05727842,-0.25038993,-0.1184295,0.13905782,-0.03784976,-0.3766623,-0.10848486,-0.085654035,0.07674548,-0.04465471,-0.07298237,0.22008698,-0.2768334,0.4165655,-0.07022878,-0.06182221,-0.19670299,-2.5384436,-0.20713648,0.15088572,-0.07852169,-0.11153999,0.045860343,0.104470804,0.07786985,-0.16295958,0.05247735,0.120397106,0.22468095,0.12203733,0.035318,0.016594518,0.05523734,-0.000522646,-0.10001458,0.098143145,-0.1671673,-0.066495694,0.2695457,0.26204094,-0.19053034,-0.011300293,-0.08675679,-0.074356414,0.0692123,-0.20126271,0.033427786,0.19249895,-0.09812598,-0.15744326,0.17637199,-0.01282264,0.0021000563,-0.2592657,0.19694646,-0.041946203,-0.043412525,-0.13742012,0.13099886,0.09020926,0.023994299,-0.0013876858,-0.078522995,-0.117861584,-0.05049522,-0.10176215,-0.13788055,0.0108265355,0.015139084,0.04432973,0.056316774,-0.09556045,0.23145555,-0.2155954,0.012145087,0.20300962,0.14928158,0.09924334,0.16669041,-0.024224095,-0.23670395,0.031862814,0.056260493,-0.30541995,-0.11180963,0.17158043,0.23396784,-0.001620037,-0.2583558,0.3279803,0.12277398,-0.017369417,-0.06406443,-0.08118245,-0.09968994,0.06533,-0.26562187,-0.04877546,0.11269427,-0.17136535,-0.121406004,0.0979614,0.20838507,-0.24069658,0.26893303,0.045756485,-0.08675399,-0.3123905,-0.3379935,-0.014349775,-0.088571936,0.12381084,0.11912333,-0.093983784,0.0584545,-0.084096804,-0.012323642,0.25281093,-0.018327836,-0.05263754,-0.13592723,0.17455141,-0.25645304,0.008380483,0.070825234,0.13463315,0.17886253,0.16372575,0.066630706,-0.21447596,-0.01689034,0.19647214,-0.15088643,-0.044333693,0.07428927,0.022535594,-0.13569085,0.19698046,0.1359677,-0.0054127467,-0.008759073,-0.29297164,0.38939673,-0.026377728,0.053941898,-0.06630916,0.1989723,0.40666866,-0.06174909,0.3768356,-0.0039124154,-0.09132069,0.18370771,0.013764755,0.29285312,-0.11923372,0.13470589,0.030639304,0.10427103,-0.055766683,-0.06643183,-0.09537105,0.2243586,-0.13293295,0.058096386,0.022227159,-0.2669633,-0.05635552,0.0010499513,0.041966323,-0.057119865,-0.07159837,-0.20539925,-0.10018083,0.10730499,-0.2516562,-0.01923171,0.13946392,0.103678845,0.1337832,0.12213309,-0.07551781,-0.21402135,0.07984743,-0.15217258,0.018547295,0.063241415,0.011491646,0.018752212,0.03887282,0.024413988,-0.19781028,0.03638228,0.10219308,0.045635786,0.08452079,-0.08450237,-0.06530557,0.08138175,-0.07375724,-0.019294987,-0.011877354,0.08324814,-0.028070934,-0.0049026594,-0.22139345,-0.26072195,-0.13842109,0.042580612,0.07866862,0.06537834,-0.038050175,-0.07161178,0.03908199,-0.31420213,0.06978343,-0.13402131,-0.042733073,0.09879358,-0.018965866,-0.03897955,-0.18424048,-0.18020935,-0.11292161,0.02285553,-0.033207323,-0.02505705,0.14519277,0.11922392,0.25729862,-0.05353081,0.051169958,-0.05225377,0.19910894,-0.11521285,0.34165385,0.09139476,0.31306472,-0.047193855,0.01846422,0.09591214,-0.04149626,-0.1865104,0.040591326,-0.0028457465,0.13235237,-0.3213343,0.12345802,0.04709554,-0.0020361955,-0.060004972,-0.09588615,-0.026990047,-0.055619877,-0.16032146,-0.15242822,0.06630319,0.29421207,-0.06672427,-0.09216406,0.06228537,-0.02520076,-0.2671557,0.059127554,-0.1885657,-0.09349618,-0.08134113,-0.08075735,0.18241502,0.020735845,-0.14991327,-0.022138916,0.26576805,0.09576747,-0.105788
EH10(58),-0.057239406,-0.319032,0.009621577,-0.03765003,0.16939583,-0.02704179,0.16512509,-0.028405119,-0.47352526,0.068586886,0.20231614,-0.14930291,-0.047302905,-0.038438622,0.22560643,-0.29726458,-0.107572556,0.047414355,-0.028773554,0.13804875,-0.2013969,0.16889814,0.011298681,0.026360266,-0.16434397,0.010572466,-0.100323185,-0.05064262,-0.15075487,0.09651491,0.046507772,-0.08811019,-0.018201096,-0.41512293,-0.03289778,-0.303614,-0.00071674935,0.005473646,-0.009808452,0.0070846537,0.18105194,0.07576633,0.15741593,-0.06736391,-0.052497976,-0.046382856,-0.322017,-0.0730419,0.07182722,0.013398791,-0.35272276,-0.10798759,-0.069988154,0.010435068,-0.021046635,-0.08575425,0.21427958,-0.24182236,0.41330677,-0.1300399,-0.07451374,-0.22455433,-2.9564085,-0.22085176,0.15043536,-0.13978678,-0.11701979,0.05780397,0.14225383,0.07195963,-0.0913224,0.09831878,0.0765398,0.22175999,0.060558833,0.04281808,0.06021306,0.101624675,0.0020762759,-0.08976706,0.08305575,-0.1427635,-0.065876655,0.18169464,0.23400235,-0.2102092,0.025315035,-0.054232497,-0.055861395,0.05107209,-0.14768767,0.061931875,0.16317528,-0.04474604,-0.17146577,0.18675858,0.015060079,0.027923407,-0.24286975,0.15715449,-0.01499665,0.000948564,-0.13703881,0.17074226,0.14891927,0.08092159,-0.044480395,-0.067936294,-0.029957525,-0.019093206,-0.051774345,-0.11496072,0.016051631,0.014804318,0.047415443,0.05965335,-0.023807704,0.28417107,-0.24648355,0.0328899,0.20470165,0.1483284,0.046220705,0.24954002,-0.027388643,-0.2594645,0.06777748,0.067775205,-0.26220882,-0.058332052,0.0863851,0.18844974,-0.045612086,-0.27070174,0.30609256,0.08604216,-0.044826552,-0.061321322,-0.09179393,-0.02194032,0.04306742,-0.23189263,-0.07072684,0.11242363,-0.19456539,-0.113110825,0.086336225,0.17067622,-0.2916743,0.2557379,0.050508417,-0.0894032,-0.21989246,-0.24654038,0.0020110752,-0.07630169,0.09359845,0.10541857,-0.14305764,0.022901447,-0.1195764,-0.029457958,0.22748195,0.016742641,-0.09365784,-0.16267031,0.21102275,-0.24698687,-0.026666442,0.029327827,0.15278028,0.16070709,0.10345453,0.07709232,-0.12798946,-0.030204218,0.109450184,-0.08343782,-0.07014535,0.12346817,0.11650779,-0.066216454,0.10126239,0.11777043,-0.05254454,0.06387264,-0.2439933,0.35472,-0.0069861705,-0.0005740035,-0.12404712,0.17839728,0.4915057,-0.015130431,0.30626118,0.017542653,-0.072286315,0.23387258,0.013421388,0.31476066,-0.14293455,0.1422551,0.027734855,0.06371097,-0.062638134,-0.02947278,-0.13070123,0.34873465,-0.068709195,0.11114882,0.052150883,-0.20551866,-0.06738485,0.07173838,0.04891965,0.008302668,-0.096441776,-0.18641569,-0.07210815,0.09312071,-0.21694916,-0.030823912,0.16933553,0.07900841,0.12135232,0.1453019,-0.10433171,-0.15870886,0.07585649,-0.12562154,0.05610636,0.088029906,0.034603655,0.09862463,0.08761031,0.03440308,-0.17306165,-0.004732177,0.05348553,0.051094558,0.031414624,-0.11868075,-0.059927773,0.028542634,-0.06847716,-0.056152735,-0.016027266,0.096488,-0.00055812986,-0.018955946,-0.18995164,-0.28030583,-0.13710934,5.412949e-05,0.0028912302,0.13430895,-0.039958764,-0.035613697,0.034402147,-0.22862089,0.074596584,-0.13577221,-0.028703451,0.09334422,-0.037228182,-0.08453798,-0.22839087,-0.1531531,-0.083330944,-0.0089488365,-0.005755751,-0.051224258,0.113669775,0.14029835,0.28873327,0.003559354,0.09157317,-0.06400752,0.19996005,-0.08802449,0.20074566,0.1435467,0.29466227,-0.010245422,-0.007871485,0.10150505,-0.07489126,-0.20752041,-0.098571934,0.024791485,0.13855857,-0.2982066,0.088111766,0.04406907,-0.05271636,-0.061054222,-0.086968385,-0.01869754,-0.16929021,-0.06264465,-0.11578305,0.03310247,0.2516972,-0.031974982,-0.06383345,0.005539816,-0.0037246207,-0.34227386,0.06864664,-0.17034619,-0.101934664,-0.10838584,-0.070872776,0.13016587,-0.022554163,-0.09583067,-0.034628715,0.32126203,0.09305526,-0.110607296
EH11(53),-0.022577342,-0.32208082,0.0128023885,-0.13349149,0.18197364,0.0057911444,0.114153154,-0.021130174,-0.42961365,0.01134855,0.18528949,-0.23953442,-0.06533652,-0.037066698,0.2764163,-0.36875418,-0.15083767,0.07185179,-0.012788784,0.10440334,-0.15332353,0.18785441,0.09952094,0.14027752,-0.10468757,-0.09620063,-0.09669345,-0.12869889,-0.23862101,0.04416103,0.04369177,-0.20893733,-0.045069076,-0.43910363,-0.07394052,-0.31686568,0.016497709,-0.03726031,-0.020063369,-0.03504403,0.18879989,0.061032664,0.19721398,-0.16454346,-0.03595107,-0.10655365,-0.15298457,-0.082738884,0.115441546,-0.041087173,-0.3892582,-0.091561764,-0.10643514,-0.024509832,0.06759271,-0.09507325,0.18731599,-0.31006494,0.37817302,-0.020129085,-0.029616494,-0.21953358,-2.52064,-0.2347985,0.13890523,-0.13721718,-0.06837709,0.025158852,0.21144806,0.08737,-0.10900997,0.0526414,0.18246837,0.19111145,0.11508289,-0.083485715,0.03634863,0.16807015,0.00788275,-0.08163983,0.018910578,-0.06380211,-0.08144792,0.15463406,0.2196467,-0.20109475,0.079585746,-0.05776661,-0.05331826,0.10387646,-0.21875577,0.016385224,0.1570161,-0.10277572,-0.14837685,0.18494192,-0.0031543772,0.0018303692,-0.35702237,0.23775661,-0.038357846,-0.04585281,-0.16977915,0.08215621,0.16473618,-0.041715145,-0.10992601,-0.086062945,-0.0023901064,0.017990531,-0.045505695,-0.08481447,0.062054615,0.058939647,0.09593462,0.07720609,-0.042590722,0.3338675,-0.25198272,0.043334153,0.19952166,0.08619808,0.04259467,0.2324957,0.018322019,-0.2578386,0.08045984,-0.05475005,-0.24952042,-0.08948564,0.092618555,0.17179321,-0.06945385,-0.29528427,0.39539096,0.12657213,-0.077328235,-0.09582636,-0.038035795,0.055780657,0.09958962,-0.27209976,-0.05967919,0.14797913,-0.18214174,-0.08999411,0.08261644,0.2197198,-0.2197919,0.33928177,0.07670715,-0.10641773,-0.3332606,-0.277639,0.008066184,-0.05546298,0.14178604,0.17337061,-0.08512178,0.02331028,-0.10469234,-0.05941228,0.31425583,-0.05273078,-0.054866143,-0.18861783,0.256638,-0.28196743,0.009888196,0.085420154,0.09672384,0.15796836,0.12937155,0.07781372,-0.119512536,-0.05269205,0.12019972,-0.07662581,-0.034702737,0.14089853,0.06311489,-0.022826305,0.06338913,0.1002687,0.0028719997,-0.025843516,-0.24769837,0.40177587,-0.014204905,0.07149417,-0.11563076,0.14347723,0.5395181,-0.094451874,0.37151262,0.011216958,-0.09167103,0.18480128,0.07397336,0.22066665,-0.1626358,0.080705255,0.11003223,0.051501323,-0.0727668,-0.046739668,-0.1571099,0.403283,-0.1956013,0.10864198,0.03161446,-0.25125772,-0.08962438,-0.019646326,0.036300164,-0.004217707,-0.07810983,-0.18822913,-0.115923285,0.1147311,-0.23241471,-0.06368955,0.20905554,0.15088786,0.036693517,0.17091705,-0.021205273,-0.17115004,0.0938984,-0.14502352,0.07037324,-0.0017329371,0.020715808,0.08704321,0.06602234,-0.006834327,-0.22778244,0.00039048036,0.09973886,-0.019184902,0.056113116,-0.043707337,-0.060061235,0.088052064,0.023987401,-0.04288849,-0.055592746,0.09702286,-0.0071235807,0.06016131,-0.121389955,-0.25266486,-0.12710688,0.052447394,0.14576605,0.17468454,-0.015300733,-0.114747524,0.023035832,-0.26406598,0.0566834,-0.109371275,-0.03715125,0.106516205,-0.046182286,-0.08744341,-0.23159125,-0.13394806,-0.13390481,-0.054563604,-0.061477955,-0.09310396,0.17431311,0.070660666,0.2297821,-0.08763872,0.048861586,-0.052549455,0.18597782,-0.056852806,0.2853175,0.14375095,0.2610016,-0.059876747,-0.024455069,0.11994255,-0.05726678,-0.29009205,-0.110639,-0.009409093,0.23084098,-0.23933025,0.069312595,0.050691105,-0.11029331,-0.0013605296,-0.07488131,-0.027931256,-0.07256575,-0.099012665,-0.118646815,0.055772934,0.30275783,-0.04380312,0.0025929646,-0.04662033,-0.02791079,-0.32025328,0.08926548,-0.14513613,-0.16492781,-0.14194112,-0.05719114,0.21306202,-0.02912448,-0.16570695,-0.06362832,0.2674371,0.048830636,-0.13374221
EH12(51),-0.031045532,-0.34543037,0.06533162,0.018709123,0.20830211,0.027278567,0.20382294,-0.00044482588,-0.32999778,-0.01754771,0.22773495,-0.14246935,-0.078581974,0.011427652,0.2116955,-0.34588015,-0.10854939,-0.020368982,-0.04342325,0.09013246,-0.16398108,0.16101658,0.16427632,0.09739946,-0.1019838,0.009484566,-0.12308376,-0.15647988,-0.15162592,0.060196724,0.08482659,0.0040849773,-0.008756531,-0.31740963,-0.040198017,-0.231338,-0.07437357,-0.07474103,-0.043826915,0.073997274,0.18257575,0.045215312,0.0654429,-0.12835166,-0.017586099,-0.04212429,-0.24174719,-0.08612809,0.10595108,0.006579148,-0.31280386,-0.12774853,-0.13694297,0.053074453,-0.05363658,-0.079893604,0.20386645,-0.2899537,0.42873976,-0.07727982,-0.041175894,-0.2085756,-2.5678773,-0.20882012,0.152172,-0.11379894,-0.11566661,0.05901548,0.11019069,0.113547675,-0.14256299,0.09604675,0.1225956,0.22657074,0.15483883,0.048430584,0.013079919,0.064600274,0.027670655,-0.091999054,0.096984856,-0.11933529,-0.029521108,0.24050628,0.2784635,-0.19262262,0.012577612,-0.11172016,-0.064834885,0.12889045,-0.20757207,-0.016006073,0.20761816,-0.13018978,-0.14872025,0.17876568,-0.0022616826,0.019716188,-0.2710898,0.17260598,-0.04265242,-0.053031784,-0.12051455,0.10993235,0.12763195,0.01514475,-0.02026,-0.08922017,-0.12887894,-0.05374555,-0.06761905,-0.098116465,-0.0027233968,0.04997478,0.04819226,0.069407426,-0.04520848,0.24257489,-0.23509662,-0.05254147,0.20033081,0.16425076,0.07892602,0.107265174,0.025118792,-0.1999397,0.06637371,0.08817045,-0.30557626,-0.051654212,0.13134049,0.25077146,0.026494611,-0.27937406,0.31164002,0.16344722,-0.09173834,-0.033253655,-0.09975416,-0.095329046,0.08023544,-0.23762679,-0.054109436,0.07574103,-0.17205976,-0.13787445,0.102401175,0.17102876,-0.21427438,0.3295968,0.07598135,-0.13127251,-0.33237466,-0.27161905,-0.008171356,-0.051827617,0.104794286,0.16603181,-0.13203296,0.039354675,-0.07744333,-0.009884722,0.21988833,0.016738761,-0.039935306,-0.18056771,0.20628323,-0.26213858,0.04201859,0.077685475,0.06351688,0.21230397,0.19304232,0.08219192,-0.23782097,-0.014546614,0.20306489,-0.17074782,-0.0579294,0.10413425,0.021106469,-0.18552904,0.17302501,0.19414824,0.0005010923,0.013023573,-0.2767724,0.3545847,-0.064297736,0.017166952,-0.060246684,0.1760911,0.41897893,-0.06966263,0.3918057,0.00025159557,-0.12649782,0.25999224,0.035798058,0.32424754,-0.16367762,0.07656513,0.038890496,0.07438557,-0.026920851,-0.07263758,-0.10543157,0.15293832,-0.20810711,0.017036438,0.028593963,-0.25490007,-0.07386872,0.030455496,0.026001504,-0.077162474,-0.06746741,-0.2269682,-0.09530741,0.1016122,-0.25667337,-0.041641813,0.15200181,0.12451747,0.13639624,0.07595029,-0.041059587,-0.18344145,0.075831704,-0.12996715,0.048667137,0.02232663,-0.0016540195,-0.02811742,0.05070078,0.008596686,-0.21219061,0.012216066,0.10731492,0.03995431,0.070395775,-0.098540224,-0.08056712,0.1082847,-0.042310968,-0.06104737,-0.022189533,0.11322457,-0.04147618,-0.018118018,-0.18698186,-0.21035635,-0.17257346,0.018498143,0.056945276,0.052692402,-0.05860419,-0.039375946,0.1162936,-0.30418158,0.05218466,-0.13015169,-0.014470824,0.050568786,0.008609881,-0.04159716,-0.18703572,-0.19412895,-0.056279156,-0.007405537,-0.061448526,-0.048911255,0.107053064,0.07892934,0.22076893,-0.05125411,0.028470905,-0.017246114,0.1928622,-0.09557327,0.38278756,0.10455758,0.29546377,-0.055584136,0.04584591,0.105107225,-0.046482854,-0.18642217,0.04888052,-0.004226905,0.09197504,-0.3144297,0.12921205,0.07457487,-0.04686173,-0.021342631,-0.112261906,-0.0072758864,-0.050731245,-0.11660044,-0.16699624,0.040616497,0.2653537,-0.041002836,-0.08145118,0.02810259,-0.0021349639,-0.28682798,0.053505186,-0.14824088,-0.12221675,-0.08649301,-0.09210548,0.14769593,0.005197681,-0.16084164,-0.08390939,0.24896213,0.055126954,-0.08995094
EH13(49),-0.00575602,-0.32867923,0.026394384,-0.14164692,0.1537724,0.058336936,0.17574653,0.0028900898,-0.5148781,0.07318091,0.21004443,-0.2642826,-0.081512675,-0.07931535,0.2944721,-0.37262177,-0.16356423,0.080342695,-0.08923323,0.178712,-0.21945779,0.21445365,0.029850308,0.078816995,-0.14967681,-0.050250404,-0.06541479,-0.12442248,-0.27211407,0.049985673,0.01453957,-0.276253,-0.099571355,-0.43623728,-0.10880734,-0.32104635,0.024001736,0.017329616,-0.090710446,-0.04823503,0.22142637,0.090750806,0.25547364,-0.13896708,-0.01863152,-0.12129443,-0.06267825,-0.16178139,0.1794806,-0.025900068,-0.450717,-0.092163526,-0.10667909,0.022478174,0.08422902,-0.085907206,0.19398297,-0.32720578,0.40075657,-0.030353598,-0.08220682,-0.20456584,-2.457524,-0.23631312,0.107534915,-0.20795643,-0.08046257,0.055506617,0.20503165,0.035858076,-0.15751247,0.05035757,0.08522826,0.23306145,0.09867662,-0.05833094,0.035014275,0.09270283,0.0046669696,-0.11929959,0.05941076,-0.16073759,-0.13604555,0.2281922,0.23428544,-0.23139077,0.01612038,-0.023780657,-0.10353144,0.07431849,-0.19982356,0.09910846,0.13168618,-0.088641375,-0.16958141,0.22218342,0.021226315,0.012439553,-0.35569417,0.23234442,-0.08437739,-0.048424505,-0.15748434,0.106305495,0.14375804,0.013990592,-0.10719471,-0.10666175,-0.016424013,-0.05179402,-0.03577198,-0.13115445,0.048773237,0.058008444,0.089338034,0.06562913,-0.07280417,0.30911675,-0.20526299,0.065643564,0.24154088,0.09822628,0.12722349,0.36634594,-0.10002489,-0.2894418,0.069743395,-0.07423717,-0.26438138,-0.0902899,0.11039982,0.124345064,-0.14409345,-0.2841711,0.36146224,0.1344996,-0.041494526,-0.13986106,0.0013540246,0.12038763,0.09793654,-0.24710728,-0.051427443,0.17833202,-0.20399526,-0.14345883,0.07121801,0.23344809,-0.2026719,0.27174452,0.053154744,-0.10707651,-0.32430854,-0.2615574,0.027861673,-0.12539138,0.13905796,0.107676186,-0.09914983,0.027641693,-0.07310741,-0.060458615,0.2917843,-0.06039089,-0.091647744,-0.13793442,0.23273456,-0.2826923,0.005392829,0.082557775,0.22670698,0.13606615,0.090850905,0.12066473,-0.0740552,-0.090989925,0.1576563,-0.091862425,0.0057445103,0.1854876,0.066452585,0.035833202,0.09006011,0.0873627,-0.0035624134,-0.0053633577,-0.17943339,0.3954965,0.043090466,0.028116167,-0.08810156,0.1274652,0.5676286,-0.109623745,0.36296505,-0.04031327,-0.1071332,0.18788163,0.07073136,0.21464272,-0.15557665,0.07437978,0.017828228,0.058865335,-0.12427537,-0.033062965,-0.16669412,0.6073482,-0.19728802,0.13477734,0.045410063,-0.23451012,-0.07978843,-0.024378525,0.07026504,0.039533194,-0.07734201,-0.22958073,-0.06582677,0.10640021,-0.16281094,-0.045606107,0.18195426,0.16477622,0.10937797,0.22273633,-0.08459823,-0.24246256,0.09742542,-0.2209629,0.027066246,0.051061533,0.05984569,0.10901649,0.091411225,-0.008659998,-0.21985768,0.039291956,0.09652665,-0.023897322,0.10373827,-0.074742906,-0.021532835,0.08395376,-0.08899615,-0.07617528,-0.06929763,0.07929577,0.003011607,0.07028335,-0.19257271,-0.30502045,-0.12236174,0.06457807,0.12328594,0.18594582,5.6963563e-05,-0.17064956,-0.10085021,-0.24685055,0.10799969,-0.11339031,-0.03503324,0.15242827,-0.04720985,-0.13711412,-0.21026626,-0.08294132,-0.19190368,-0.022770878,-0.0082609095,-0.07559229,0.15893516,0.15019935,0.2674558,-0.07796543,0.059930623,-0.04763987,0.21343847,-0.06709025,0.25055262,0.19206142,0.25485852,-0.029067097,-0.028959904,0.057785958,-0.042693377,-0.21962366,-0.15242968,0.0056150528,0.26697865,-0.21887039,0.048662495,0.0331441,-0.04566157,-0.021523101,-0.071535535,-0.0072104633,-0.11098443,-0.12900552,-0.10156356,0.08911885,0.2718486,-0.04059213,-0.028919354,-0.012723159,-0.011971012,-0.36393738,0.123767935,-0.14999261,-0.20245494,-0.11413976,-0.15346651,0.17362173,-0.084455214,-0.15190849,-0.027200833,0.35226798,0.10542845,-0.18784052
EH14(48),-0.039782498,-0.28145993,0.08158269,-0.101218015,0.13776106,-0.1344273,0.09129227,0.013773488,-0.32963973,0.020910947,0.21658581,-0.07284105,-0.007362546,0.013196026,0.18617582,-0.36965388,0.03710102,0.040726602,-0.07633412,0.037375815,-0.12619974,0.19073325,0.059734967,0.058521356,-0.09969718,0.071900845,-0.111621074,-0.097809814,-0.09159605,0.06399103,0.043115553,-0.18615626,0.01740267,-0.379417,-0.07478926,-0.32360256,0.07777796,-0.01676453,-0.015570927,-0.014219454,0.07272311,-0.019629717,0.17961411,-0.035864506,-0.0769303,-0.08803227,-0.42542666,-0.05522584,0.059316583,0.10155597,-0.3331359,-0.084727205,-0.18400782,0.07913861,0.022560487,-0.1569502,0.23900919,-0.2866565,0.296337,-0.12288848,-0.060664147,-0.15209499,-3.1993349,-0.20154816,0.07935079,-0.19894512,-0.086081155,0.041789364,0.093460575,0.06976868,-0.09459191,0.075802624,0.10476751,0.19573887,0.051030096,0.013725996,0.06838425,0.10939787,0.013381011,-0.070509635,0.08235524,-0.022504885,-0.042414445,0.17574544,0.13669474,-0.1811146,0.024972005,-0.09762907,-0.050664306,0.08409201,-0.15353087,-0.04638272,0.08741122,0.050956436,-0.19262002,0.10694733,0.050314397,0.097698025,-0.24412338,0.11821787,-0.0016404417,-0.005438296,-0.11613544,0.07270793,0.17843607,0.010917948,-0.06576075,-0.07459702,0.0073602665,-0.007772646,-0.10341485,-0.027832605,0.06076048,0.042016603,0.08413812,0.14472097,0.007114109,0.27395204,-0.2457204,0.1391884,0.110364504,0.10360463,0.10441699,0.18272379,0.043886524,-0.2663729,0.094383,0.017356379,-0.245577,-0.061003115,0.11234682,0.14665711,0.05843131,-0.20724264,0.29450312,0.040227577,-0.0646406,-0.022065965,-0.1561983,0.0086417915,0.14119343,-0.20656475,0.079411395,0.104721464,-0.12153888,-0.06915288,0.039832838,0.12706082,-0.23214689,0.27841496,0.013825701,-0.096920654,-0.28547207,-0.33603814,0.08516098,0.05375558,0.0026271192,0.15336429,-0.14169274,-0.017153932,-0.096034095,-0.040111072,0.18420555,-0.02591914,-0.08459209,-0.2093064,0.18849431,-0.22996686,0.04915991,0.09343086,0.09468744,0.20748813,0.121827394,0.14323084,-0.06123145,0.011025608,0.06759098,-0.08666649,0.030535579,-0.036721166,0.13764648,-0.14312105,0.025757138,0.10526287,0.004608345,0.03124314,-0.25790396,0.31242022,-0.023635726,0.021702163,-0.12310381,0.19899534,0.51606923,0.0062443046,0.2765843,0.03537687,-0.12185528,0.24938366,0.16590254,0.31949633,-0.09817883,0.10738096,0.13777547,-0.0021119446,-0.014970261,-0.017992496,-0.1731519,0.25141,-0.09048673,0.18018645,0.03749048,-0.19805178,-0.14832571,-0.025975268,-0.05112471,-0.01727689,-0.010170507,-0.19307932,-0.11964714,-0.019241488,-0.19071935,-0.088154115,0.23040031,0.059883945,0.03652637,0.17217739,-0.09838427,-0.16623466,0.082104675,0.03089116,0.031650882,0.07397163,0.01509357,0.034689162,0.08077106,0.06832461,-0.18312383,-0.010701194,0.04181769,0.07091964,-0.022411175,-0.11842584,0.006932113,0.098769635,0.014399552,-0.026713578,0.02687565,0.14622095,0.047654577,0.054259174,-0.12257633,-0.22556856,-0.11742842,-0.027654283,0.035448924,0.09585455,-0.08094584,-0.026529105,0.12349783,-0.1831451,0.099272795,-0.13942079,-0.042510957,0.021660628,-0.09952524,-0.03183383,-0.2150391,-0.19879274,-0.06507979,-0.02764082,-0.019757623,-0.072266504,0.10331774,0.15483177,0.19655414,-0.16658111,0.043541856,-0.090535,0.22180867,-0.118258424,0.27940407,0.11050835,0.30409035,0.017964726,0.12671039,0.15281281,-0.077821955,-0.22407395,0.0016972211,0.0056274016,0.14985508,-0.27605507,0.15988117,0.004665047,-0.10146567,-0.007060904,-0.15574902,-0.0014660155,-0.08497533,-0.02392005,-0.070633434,-0.039291207,0.23710173,-0.063417986,-0.014513887,-0.08887215,-0.01576775,-0.2536085,0.03520857,-0.14192982,-0.12360417,-0.23484485,0.050464917,0.15651748,-0.030641472,-0.076473415,-0.13350634,0.23118496,0.06388598,-0.050796527
EH15(42),-0.06563386,-0.3488634,0.024725834,-0.060807787,0.21272525,-0.097640716,0.25588575,0.020713532,-0.42315075,0.08002136,0.3020368,-0.107036345,-0.111924626,0.065463014,0.22658293,-0.36444783,-0.046670254,-0.0054037627,-0.023256307,0.042409953,-0.15836135,0.049203433,0.102217466,-0.059156224,-0.09758183,0.028948314,-0.16107023,-0.10589895,-0.04328668,0.09689279,0.15634286,0.011827049,0.029696468,-0.34209132,-0.0047377567,-0.2759584,-0.029323293,-0.045750085,-0.06471789,0.08125576,0.22211605,0.09726061,0.11139494,-0.0655275,-0.03296925,-0.12790942,-0.23957545,-0.07158955,0.08766372,0.12273221,-0.33996603,-0.14125663,-0.10760082,0.037150264,0.023395363,-0.113434896,0.17776865,-0.25341552,0.33465436,-0.13347535,-0.08883327,-0.15439901,-2.7161999,-0.16838591,0.12416601,-0.1862535,-0.07005421,0.03556761,0.10477855,0.11818576,-0.09133092,0.04093395,0.22871645,0.23035976,0.12706034,0.14136034,0.022148255,0.0886528,0.060929276,-0.10309195,0.091101676,-0.052576896,-0.03853485,0.23108199,0.30352437,-0.11366903,-0.031585287,-0.10462344,-0.061409377,0.048237994,-0.11823259,-0.12000161,0.18547003,-0.08499518,-0.17862849,0.057212763,-0.019867009,-0.034614287,-0.20429993,0.17699988,-0.060074788,-0.020881873,-0.13643193,0.16039759,0.22735497,0.0807753,-0.029779417,-0.11953567,-0.1264793,0.002865186,-0.100537516,-0.08685426,-0.045039546,-0.033563193,0.078921065,0.11822083,-0.05579025,0.11875998,-0.20293131,0.037365012,0.113131635,0.16898613,0.06993594,0.076400965,-0.026964448,-0.23117505,0.105492674,0.09606399,-0.3114419,-0.067610934,0.08148267,0.29446065,0.14203742,-0.23308222,0.28308555,0.1440329,-0.057415098,-0.08965758,-0.17202544,-0.080243774,0.0029579857,-0.26018682,-0.060619257,0.123866126,-0.15889129,-0.054094385,0.021529779,0.26624492,-0.25508624,0.31327,0.08354219,-0.074918196,-0.25883573,-0.2819121,-0.052982118,-0.09015237,0.12352115,0.07892725,-0.1289678,0.046083845,-0.11837453,-0.06618614,0.19924587,-0.015674034,-0.02947563,-0.23694654,0.19318257,-0.3135832,-0.009804605,0.03391374,0.15080972,0.18786848,0.1345708,0.17229527,-0.15019888,-0.03781395,0.17394495,-0.13702354,-0.07323228,0.0035912048,0.10194059,-0.16205305,0.15357955,0.13717695,-0.095871136,-0.023443788,-0.31278118,0.2880894,0.021566544,0.062416956,-0.08254677,0.19613506,0.4374619,-0.061209913,0.3656375,0.04904653,-0.026017677,0.163967,0.058433324,0.36539906,-0.08430124,0.15054938,0.08479155,0.013171045,-0.09776192,-0.10359537,-0.09396206,0.10474269,-0.04523388,0.05752182,0.08841076,-0.23664483,-0.13285048,-0.04840427,0.05417774,-0.07951979,0.018476266,-0.18891072,-0.10649566,0.08709743,-0.20261548,0.007187627,0.25921845,-0.037376862,0.091546394,0.21311836,-0.15702173,-0.11478795,0.08566354,-0.025124418,0.0477529,0.034338158,0.057873152,0.07067056,0.05714285,0.05182377,-0.13435523,-0.011643721,0.091140926,0.045421775,0.024264485,-0.12098914,-0.08878378,0.06301312,-0.109537065,0.021327646,-0.0009966139,0.08447393,-0.051693577,0.010475089,-0.15604952,-0.3217372,-0.1235275,-0.03191622,-0.05656871,-0.03998413,-0.08598091,0.012431006,0.107429996,-0.27894327,0.07673548,-0.19356881,-0.057212908,0.031584583,-0.074761,-0.035801306,-0.18394911,-0.25688797,-0.20367147,0.096644394,-0.11567836,-0.0732721,0.19830671,0.14611638,0.23500563,-0.067316465,0.11888028,-0.09313893,0.2752816,-0.14733538,0.3698443,0.10674701,0.34279844,0.03323035,-0.060023848,-0.018304065,-0.063113645,-0.19166143,0.12584132,-0.0014599977,0.09056077,-0.39942136,0.090680234,0.046772286,-0.035254244,-0.10710234,-0.083444834,-0.09791688,-0.074088134,-0.10941087,-0.1266735,0.038142074,0.278209,-0.034930903,-0.11643959,0.06357626,-0.047408193,-0.2119121,0.05996626,-0.15764093,0.023180325,-0.15409023,0.00091907533,0.192305,0.004310551,-0.035902154,-0.0326201,0.21603931,0.09595902,-0.068250634
EH16(42),-0.024129223,-0.32944325,0.061313067,0.032032877,0.20664605,0.024052935,0.20452392,-0.012373247,-0.3472801,-0.017288705,0.21598475,-0.14056472,-0.08294451,0.013984902,0.20832406,-0.34623238,-0.10801117,-0.012695796,-0.0448435,0.08527607,-0.16400333,0.16097051,0.14092466,0.09210678,-0.12115002,0.018074175,-0.1430414,-0.15850192,-0.15151788,0.07855185,0.06859297,0.016314996,-0.0015877334,-0.32327712,-0.028489515,-0.22755831,-0.087032996,-0.07796293,-0.04614847,0.07305302,0.19234115,0.042592544,0.06244851,-0.119949065,-0.0181437,-0.04562965,-0.24441613,-0.08912177,0.10789824,0.008672888,-0.31118333,-0.1330666,-0.12833883,0.05832421,-0.048438583,-0.07095865,0.20477004,-0.29329792,0.42770076,-0.078705765,-0.047540046,-0.2091952,-2.5815573,-0.19407448,0.15287144,-0.11655591,-0.11327604,0.07055753,0.120780095,0.1127251,-0.14708567,0.09736401,0.13125986,0.22389883,0.15228547,0.052816167,0.021013,0.06344626,0.033774886,-0.09327264,0.112360254,-0.1376311,-0.030794991,0.24640682,0.27333423,-0.20008582,0.013099989,-0.10704991,-0.063897125,0.11827989,-0.21660748,-0.014984764,0.20287976,-0.13071558,-0.15014097,0.18430318,-0.0010074434,0.025632707,-0.27536407,0.1619055,-0.04655584,-0.04939474,-0.12305735,0.108561866,0.1321017,0.02184404,-0.019807598,-0.07436673,-0.13033243,-0.06010867,-0.078842916,-0.0999641,-0.0057060244,0.0467136,0.0483512,0.052366737,-0.036349453,0.24184568,-0.24030231,-0.05257441,0.19887051,0.17317024,0.07894972,0.11906283,0.016576165,-0.19356547,0.06734925,0.08364028,-0.3077414,-0.04682866,0.120853946,0.2566731,0.017738331,-0.28085646,0.31331334,0.15674193,-0.088156335,-0.03550291,-0.106451735,-0.096514836,0.08809238,-0.24201046,-0.0468663,0.07965963,-0.16476633,-0.13706686,0.091095604,0.1819023,-0.22187914,0.32576802,0.07779748,-0.12523632,-0.33295712,-0.25941753,0.017385092,-0.06143445,0.09830259,0.1592059,-0.12082792,0.04850401,-0.079535745,-0.0036583086,0.21808489,0.014487512,-0.044870093,-0.17783223,0.19558895,-0.25877163,0.037977803,0.07573997,0.054024614,0.20539996,0.19419375,0.06573576,-0.24891496,-0.0037308224,0.21494913,-0.1735669,-0.07104494,0.10664079,0.022077302,-0.20092727,0.16970299,0.18774089,-0.0046087485,0.02336423,-0.27437752,0.36491957,-0.0643933,0.022502795,-0.061022997,0.16997834,0.42960808,-0.0864335,0.4067189,-0.00907539,-0.12815833,0.26022115,0.03855345,0.31919304,-0.1525755,0.07723804,0.022241008,0.0682284,-0.015348766,-0.08040902,-0.09929357,0.16072933,-0.20186846,0.02339337,0.044671312,-0.26016507,-0.067658186,0.027303472,0.026673816,-0.07117231,-0.06229098,-0.22243829,-0.08438837,0.09112052,-0.25103134,-0.03431509,0.15750217,0.116168335,0.13045467,0.080375336,-0.046381615,-0.18042056,0.07909372,-0.13244078,0.043671343,0.034141935,0.007304942,-0.030828988,0.059737977,0.009584533,-0.19631062,-0.0007341688,0.10401534,0.040393453,0.060205117,-0.10466138,-0.07585029,0.102296196,-0.06663331,-0.05928679,-0.037531335,0.102200985,-0.040179964,-0.029446786,-0.1910434,-0.20749578,-0.16879418,0.01629033,0.046502482,0.058567908,-0.04123301,-0.041280936,0.10607457,-0.30621076,0.04918806,-0.13952796,-0.015286384,0.052141234,0.01810753,-0.03633133,-0.17582856,-0.18983908,-0.058452893,-0.0072282096,-0.05973895,-0.049162325,0.11388649,0.076856665,0.21553926,-0.041527588,0.033757716,-0.013700262,0.194087,-0.094193995,0.35590622,0.099177286,0.30043593,-0.061555628,0.04963188,0.09081623,-0.03347701,-0.18051676,0.041563973,-0.0045151804,0.09737147,-0.3256437,0.13522959,0.08288524,-0.034214415,-0.019973123,-0.10143281,-0.016956922,-0.052626915,-0.11692636,-0.15991104,0.04148664,0.26446775,-0.037113566,-0.07415934,0.03179928,0.0035327636,-0.29260713,0.041657828,-0.158644,-0.11862171,-0.07656138,-0.09609834,0.15883589,0.00045884753,-0.15231773,-0.07608609,0.24451047,0.061934628,-0.08463119
EH17(39),-0.016256081,-0.21488117,0.098037004,-0.0677442,0.24911058,-0.20692478,-0.030788908,0.0068160873,-0.23702134,-0.119728245,0.11524413,-0.06393223,-0.087681785,0.016094282,0.256433,-0.38817078,-0.049919073,0.017405339,0.0035256734,0.188545,-0.030101387,0.11948956,0.109564915,-0.13074243,-0.11767704,-0.042402603,-0.123933695,0.106750056,0.10691352,0.14016575,0.090134285,0.09484023,0.13621561,-0.23185025,0.091990046,-0.23780863,0.057089858,-0.1110524,-0.05673657,0.0053621377,0.16344728,-0.07387372,0.18749928,-0.13518333,-0.111104466,-0.13765094,-0.3950745,0.054814856,-0.024711974,-0.14144361,-0.26206005,-0.018027881,-0.0344954,0.15345904,-0.0385826,-0.08995564,0.20381348,-0.2734239,0.22353518,-0.043928314,-0.10275197,-0.24152294,-3.1161962,-0.28891504,0.17033961,-0.0676047,-0.019909002,-0.0028519083,0.1863562,0.078136355,-0.059672166,0.15615042,0.16665623,0.21582565,0.08231697,0.051802292,-0.09915268,0.066917755,-0.09186976,-0.17620456,-0.1388484,-0.055791378,-0.10739239,0.24266428,0.06993064,-0.04339406,-0.06677449,-0.05321414,-0.06370697,0.037145734,-0.0850742,0.014628373,0.17847735,-0.019103644,-0.14165397,0.16903001,-0.08166943,-0.0516058,-0.081315115,0.19963801,-0.14238043,-0.018141175,-0.13405049,0.080038354,0.11643013,0.08445359,-0.050302062,-0.057283413,-0.046673432,0.15717925,-0.058676142,-0.2291959,-0.10260389,-0.053840816,0.12935224,0.16949663,-0.005115048,0.17979671,-0.102719426,-0.059260435,0.13243905,0.11836519,-0.08185352,0.1666833,0.13979262,-0.086016834,0.005558235,-0.17310521,-0.23704055,-0.09318613,-0.005520012,0.16188706,0.02926093,-0.2529034,0.26696864,-0.05166026,-0.05362761,0.04470951,-0.061425798,0.022374263,-0.087619916,-0.2194036,-0.027684676,0.06900071,-0.053846687,0.048585206,-0.09375744,0.23631425,-0.30456835,0.20800078,0.050843727,-0.11387887,-0.2974515,-0.26527297,-0.027727243,-0.006196299,0.1145269,0.06547083,-0.24599032,0.10634713,-0.034094494,-0.048610304,0.34307796,-0.11010588,0.14772268,-0.2493904,0.14654149,-0.14752954,0.0509496,0.10072025,0.012920424,0.07647658,0.24761532,-0.041967638,0.03024485,-0.042941604,0.07238001,-0.023217626,-0.04550708,-0.053416185,0.081319086,-0.09635288,0.16127858,-0.02537215,-0.0911511,0.11886841,-0.16302846,0.36851734,0.02987787,0.11657043,-0.09329906,0.10129358,0.6420485,0.07820582,0.1777485,0.14903623,-0.048536308,0.10615886,0.0051264158,0.15158458,0.048594076,0.3614106,0.13985059,0.05482621,-0.13757509,-0.0008916991,-0.032153685,0.06028609,-0.116619,0.1094778,0.19204116,-0.311931,-0.25481725,0.018723717,0.1278968,-0.017302018,-0.16511865,-0.014642325,-0.08109146,0.06058134,-0.2594915,-0.16335851,0.062026713,-0.14217094,0.054043915,-0.009546608,-0.01593873,-0.24631692,-0.049438003,-0.17377028,0.23128343,-0.053844094,0.20851493,0.1263522,0.014320786,0.01253002,-0.060514595,-0.059273697,0.064915754,0.07344423,0.18691404,-0.06977766,-0.05300471,0.037853174,-0.01653595,0.07860824,0.1659762,0.13801038,-0.029432347,0.18019265,-0.20731802,-0.1935758,0.02079873,0.010839872,0.14717133,-0.03412183,0.015486113,-0.058458813,0.032069515,-0.14941771,0.112961434,-0.25740403,-0.14950365,-0.03353866,-0.13736965,0.039549716,-0.18039279,-0.29009348,-0.14375143,-0.09087131,-0.066893145,0.02682531,0.20156653,-0.06818931,0.18372601,-0.03315242,0.08065348,-0.05026895,0.26065633,-0.13113183,0.1945296,-0.003258793,0.29779837,0.021770816,-0.038327117,0.30369195,-0.0069490317,-0.060970686,0.17084736,-7.6251126e-05,-0.017769292,-0.14651439,0.10205861,0.028398238,0.08963242,-0.022592433,-0.14627598,-0.058017023,-0.15661494,-0.12773207,-0.102718614,-0.099179335,0.16480736,-0.053447913,-0.0031405275,-0.034383047,-0.038819514,-0.20668368,0.048489906,-0.08102432,-0.053052995,-0.17778708,0.004442094,0.17021796,0.012570996,-0.09570199,-0.08089055,0.25153413,-0.06342243,0.0174467
EH18(38),-0.011588898,-0.32096514,0.032326955,-0.015900422,0.23990987,-0.02062437,0.083867855,-0.07236613,-0.3471759,-0.037697084,0.21666858,-0.12859881,-0.12088916,-0.007819481,0.18908954,-0.33430517,-0.064247474,0.0274393,0.005113444,0.10025579,-0.10224873,0.12860309,0.056904484,0.041910622,-0.13343756,0.011904164,-0.11915204,-0.11243344,-0.12133587,0.074236035,0.05335563,0.02284437,0.06085522,-0.37971377,-0.035850354,-0.25330395,-0.00017868195,-0.020853467,0.033869565,0.011990719,0.15182546,0.07369256,0.07639281,-0.10812889,-0.058552083,-0.062944576,-0.38898194,-0.033371206,0.042008646,0.02048764,-0.31011328,-0.11281166,-0.058918122,-0.041166034,-0.055420157,-0.09083341,0.2259619,-0.23225644,0.37448764,-0.0058754673,-0.07717192,-0.19926934,-3.1687295,-0.19565658,0.122446835,-0.12623705,-0.013472984,0.048273966,0.11891239,0.14533974,-0.12758918,0.05374286,0.17778566,0.18692291,0.006247577,0.042003833,0.007832608,0.061483324,0.013982554,-0.080638416,0.094384834,-0.086639866,-0.12244823,0.18077908,0.22320934,-0.15887542,0.019595059,-0.10159271,-0.034997307,0.038520515,-0.17036787,-0.039282277,0.19686821,-0.01185381,-0.13120846,0.13543965,-0.0520575,0.005407727,-0.22331141,0.07797353,-0.057881564,-0.02384731,-0.17120743,0.1393163,0.15542276,0.05032738,-0.06764718,-0.075528756,-0.051940147,0.001960129,-0.09438216,-0.08067991,-0.010860521,0.012076625,0.022510773,0.075389564,-0.022505874,0.23939069,-0.16165821,0.07437393,0.19854754,0.15124795,0.05212063,0.18447478,0.06858124,-0.21468009,0.100027494,0.0320577,-0.28691348,-0.1542314,0.080408745,0.20313951,-0.015282145,-0.26374978,0.3411639,0.029808769,-0.045415256,-0.054925792,-0.120560415,-0.0637815,0.017652642,-0.25385025,-0.019452132,0.13031906,-0.111464776,-0.05765017,0.08482721,0.16669232,-0.23402193,0.28000447,0.10324714,-0.09937128,-0.30657834,-0.3061975,0.010992466,-0.05442901,0.117405005,0.12410384,-0.12070262,0.040893614,-0.077613756,-0.055005614,0.24902932,0.0041759037,-0.06796305,-0.1468334,0.23707351,-0.22724096,-0.0236655,0.036887996,0.069564365,0.10177785,0.17228824,0.12523411,-0.09630082,0.00689169,0.13429277,-0.0443375,-0.045990847,0.018280318,0.08988888,-0.09035207,0.10196918,0.10620263,-0.022212222,0.037726022,-0.26429546,0.32676518,0.03463743,0.07678401,-0.047347277,0.15999188,0.47155693,-0.036844533,0.2608815,0.03938045,-0.097146794,0.16835208,0.06446965,0.2480528,-0.095060885,0.20296773,0.09875086,0.09437197,-0.0988771,-0.02869868,-0.075108044,0.20636292,-0.105675355,0.17557971,0.09001132,-0.2847968,-0.09805171,-0.005729253,0.011149143,-0.037227355,-0.051808875,-0.16155744,-0.07704396,0.1006725,-0.2026427,0.000947452,0.16577947,0.07069542,0.07962076,0.16788153,-0.07850066,-0.10809044,0.049703643,-0.14238527,0.10050288,0.1054368,0.027940707,0.01113526,0.02878211,0.010047006,-0.14265929,0.046038285,0.07184635,0.063090086,0.037840527,-0.07933516,-0.09470149,0.07860293,-0.022611262,0.01035751,0.033505455,0.09103405,-0.054848537,-0.010888333,-0.14162582,-0.25816497,-0.09758253,0.028629843,0.022052594,0.077637486,-0.055936843,-0.03371193,0.04681926,-0.24642034,0.09079322,-0.11488568,-0.026567178,0.056258947,-0.072235085,-0.06545573,-0.17664817,-0.2500005,-0.07435843,-0.024322268,-0.027002517,-0.0324539,0.09861284,0.06807286,0.21798956,-0.06590935,0.038533017,-0.048908275,0.2012775,-0.1180677,0.29979938,0.10849419,0.3130067,-0.0003071761,0.05803004,0.17896353,-0.076441415,-0.17697684,-0.014475364,-0.01793711,0.10047289,-0.24876949,0.11647384,0.034951136,-0.03242245,-0.0028054928,-0.09494898,-0.057263363,-0.09551955,-0.10452107,-0.115896,0.043947138,0.31324595,-0.0650683,-0.08155662,-0.035885833,-0.014212955,-0.27402505,0.072979584,-0.120403446,-0.0978557,-0.1180209,-0.060060985,0.16150136,0.006408007,-0.11218787,-0.08293306,0.20749411,0.07238232,-0.047073465
EH19(37),0.01192082,-0.21841578,0.056929197,0.024431046,0.23962423,-0.19913691,0.0072257477,0.004713418,-0.21559359,-0.1337709,0.120469294,0.019189242,-0.1464374,0.05906878,0.25101432,-0.38078257,0.017039703,0.028204413,-0.021962175,0.1971873,-0.09464853,0.09593898,0.13266031,-0.16435426,-0.15483043,-0.008372769,-0.1864616,0.12719272,0.16934593,0.19680041,0.08017507,0.21221653,0.20010038,-0.12735085,0.10287837,-0.21043032,-0.004434478,-0.17749399,-0.01052847,0.09316724,0.23901582,-0.03942912,0.1644098,-0.13642663,-0.06764399,-0.17259315,-0.31455776,0.049394026,-0.002161275,-0.1596015,-0.22108506,-0.094138205,-0.09871087,0.084332496,-0.06102854,-0.06297412,0.19670299,-0.2314985,0.23937818,-0.118813336,-0.12938122,-0.24107796,-3.0789485,-0.2033791,0.1774786,-0.025959287,0.02164723,-0.08418972,0.15681733,0.076000065,-0.15195958,0.15833911,0.22185044,0.15367259,0.10802658,0.12861688,-0.10518666,0.013441881,-0.07043723,-0.20280801,-0.06999314,-0.035694707,-0.09178743,0.25874954,0.11606783,-0.08411895,-0.10581278,-0.013100537,-0.04536332,0.04092285,-0.095472425,-0.100472875,0.22317229,-0.119846545,-0.120213106,0.12025453,-0.12272879,-0.0063001243,-0.10693818,0.15979047,-0.15857062,-0.06523495,-0.17695387,0.06391083,0.14938945,0.10986611,-0.032214697,-0.042436123,-0.115105614,0.07389195,-0.06747896,-0.17026041,-0.13259552,-0.097010694,0.1360436,0.18800527,0.039553333,0.1504175,-0.06078321,-0.12301233,0.1892409,0.22058451,-0.04328142,0.078054,0.14894734,-0.05083592,0.02672828,-0.17500323,-0.2582166,-0.0680164,-0.036540307,0.22159886,0.045226853,-0.2712019,0.25726748,-0.034488443,-0.057304796,0.03576912,-0.059405822,-0.053375885,-0.007850609,-0.29413864,-0.043800782,0.0859715,-0.05640214,0.05060165,-0.12582754,0.2581871,-0.262997,0.18358167,0.08097247,-0.11294357,-0.37448943,-0.23796313,-0.015739158,-0.03356183,0.14612958,0.076792344,-0.20180672,0.17388077,0.016164344,0.034777634,0.29058638,-0.03661204,0.09606012,-0.24689023,0.083463185,-0.120234795,0.09081897,0.07416953,-0.055231966,0.078311466,0.24859619,-0.10674564,-0.06498871,0.061263636,0.1646034,-0.13649045,-0.093231685,-0.07860838,0.052395202,-0.23142484,0.17104693,0.029460823,-0.1310071,0.09975117,-0.22283317,0.3198953,0.0020069443,0.1475219,-0.016486673,0.09638014,0.60449684,0.03999029,0.2513899,0.11746408,-0.07447072,0.14010121,-0.0037534337,0.16651396,0.081126094,0.34742215,0.101276055,0.013119519,-0.118856445,-0.06651023,-0.022753906,-0.21104598,-0.14404899,0.0045976066,0.19760704,-0.3363653,-0.19175015,0.03431948,0.19356005,-0.06832264,-0.1429028,-0.08610659,-0.09650431,0.09054196,-0.22819427,-0.15611702,0.11445282,-0.13804938,0.112112515,-0.09360089,-0.06566804,-0.22285202,-0.08704985,-0.19394237,0.2239811,-0.070827484,0.24373905,0.051040675,0.021716116,0.014794603,-0.07165803,-0.052968126,0.10090692,0.09765743,0.19298042,-0.0866436,-0.013742557,0.053890087,-0.054623537,0.12686694,0.16120765,0.07453398,-0.031227455,0.13073884,-0.20341906,-0.15486489,0.063641064,-0.049267594,0.07696164,-0.058824297,0.0040421947,-0.06091769,0.083033,-0.16950731,0.12992263,-0.27098647,-0.18018672,-0.019118514,-0.113152236,0.028467571,-0.1294106,-0.3067373,-0.10032921,-0.06922792,-0.06485916,-0.0051972563,0.13079527,-0.0567288,0.12199307,-0.0047912374,0.106095456,-0.0143733155,0.27394876,-0.09382131,0.21077745,0.013098299,0.30128628,-0.067379095,-0.052936036,0.24420609,-0.013896474,0.002165987,0.2619109,0.01656588,-0.04258771,-0.1705405,0.10437895,0.0012075598,0.15367718,-0.0010211748,-0.13623293,-0.09310697,-0.10395249,-0.1331463,-0.08295762,-0.077447005,0.16156535,0.006902815,0.018154658,0.03798168,0.027584402,-0.23258545,0.0054715388,-0.04990579,-0.021876717,-0.110655695,-0.03998117,0.15738638,-0.0068338593,-0.048729576,-0.11867708,0.24676639,-0.064410016,0.058222838
EH20(37),0.16757557,-0.17570385,0.09120769,-0.02872398,0.20682697,-0.019671379,0.02756331,-0.067777336,-0.23282741,-0.036888707,0.24545646,-0.033039097,-0.09298343,0.05048451,0.18091762,-0.2776127,-0.03790457,-0.037387684,0.061507456,0.23200935,-0.07251365,0.07814385,-0.016844502,-0.007288476,-0.0613331,0.0367689,-0.06394311,-0.044948053,-0.059284057,0.13099657,-0.08302003,0.077507876,0.042160135,-0.20348851,-0.053129464,-0.2142376,-0.010040327,0.0026713193,0.039420277,-0.027055336,0.018532397,0.08948538,-0.029114665,-0.059230793,-0.104086965,0.039001442,-0.7557049,0.12192895,0.01566754,-0.012145291,-0.23366714,-0.018944189,-0.03202469,0.08589862,-0.11676415,-0.080689944,0.2248141,-0.08556396,0.30365568,0.0036012612,-0.09460451,-0.23986445,-3.8593454,-0.17891476,0.07713409,-0.025431486,0.046525657,0.13206755,0.06120902,0.10836688,0.0075907153,0.06000833,0.0056390455,0.17362447,0.009435203,0.024910303,0.047457576,0.11967361,-0.020530002,-0.059216402,0.07019126,-0.09368061,-0.060436353,0.10291158,0.13658533,-0.17572835,0.05944737,-0.23524404,-0.037398595,0.10533983,-0.11009828,-0.023127196,0.088175096,0.16230504,-0.122000985,0.17467684,0.026349789,0.007540676,-0.101968914,0.12568128,0.016664863,-0.046179857,-0.24109511,0.12990475,0.004436048,0.10550863,-0.074715905,-0.03642324,-0.057051882,-0.088190936,-0.082387574,-0.08029207,-0.04594556,0.03801148,0.04290878,0.063857,-0.028346274,0.24111028,-0.117350705,0.07100654,0.13825819,0.07178355,0.068719134,0.1204771,0.09766456,-0.115432546,0.021166395,0.025048165,-0.33692786,-0.049891755,0.12354971,-0.030745719,-0.1132113,-0.1533332,0.2887758,0.052076202,-0.18734363,-0.0128211025,-0.029656144,-0.06440906,0.0926195,-0.2254417,0.0038938061,0.008365834,0.036412183,-0.0742288,0.10338758,0.10642746,-0.30427343,0.15225524,0.009726655,-0.077809304,-0.20621605,-0.28617358,0.013128503,-0.002053424,0.021930119,0.09415405,-0.01531529,0.010281433,-0.07827066,-0.070387505,0.2282294,-0.015806893,8.580826e-05,-0.13696373,0.3010398,-0.187004,0.013987442,0.06790018,0.06499937,0.10868267,0.008155093,-0.058676872,-0.008464273,0.07305255,0.064074196,0.06755861,-0.025183842,-0.009034201,0.1343059,-0.11913529,0.1520009,0.086416155,-0.103929006,0.103254445,-0.18070701,0.3718333,0.015302984,-0.06480287,-0.086116835,0.051014714,0.11804925,0.017546812,0.016584294,0.12901527,-0.05244962,0.1593848,-0.028692516,0.26281887,-0.12591569,0.1874517,0.10925392,0.15372889,-0.07756016,-0.008346751,-0.008551312,0.22030017,-0.06560522,0.19982103,0.09866483,-0.21501231,-0.022622665,0.08231161,0.033708576,0.0049923486,-0.14803104,-0.0672934,0.007546074,0.03507038,-0.16577879,0.055902544,0.10213355,-0.01096657,0.13002433,0.10811064,-0.08084114,-0.10921334,0.04019372,-0.13120456,0.14537007,0.011359506,0.07235583,0.13120732,0.09672279,0.056731407,-0.005141972,0.025858704,0.063111305,0.12041147,-0.027543224,-0.042834338,-0.00045784138,-0.086490855,0.038185216,0.0034744034,0.1665256,0.0771799,-0.005939584,0.08073836,-0.058828846,-0.21183033,-0.11858008,-0.03416202,0.0021756804,0.092492834,-0.18684249,-0.026591478,0.11610989,-0.19434077,0.02238304,-0.08842716,0.0477036,-0.013794362,-0.0062567904,-0.0042870487,-0.15558565,-0.14727847,0.024176817,-0.10904772,0.031187015,0.00071455963,0.065882415,0.1122755,0.14919597,0.03575969,0.061178315,-0.048152223,0.09452183,-0.08443989,0.09180576,0.009379291,0.19663633,-0.016598644,0.16804583,0.12437435,-0.051400643,-0.20420213,-0.104052894,-0.010804067,-0.026899513,-0.1266167,0.16648437,-0.05272096,-0.011263792,-0.018216183,-0.14785756,-0.017287213,-0.11991328,0.03809097,-0.1185137,0.044838045,0.18803558,-0.0702786,-0.13683394,-0.10883672,-0.029846454,-0.23682038,0.00017769715,-0.15522918,-0.03616059,-0.054624666,-0.08067887,0.10176305,0.04288847,-0.14830206,0.013028667,0.23681904,0.12639156,-0.107263416
EH21(36),-0.045619827,-0.33307683,0.045815837,0.06015603,0.16333689,-0.09754804,0.16386876,0.0019317511,-0.30889893,-0.025597814,0.22045745,-0.08075349,-0.11859502,0.05217739,0.24409218,-0.34571126,-0.012444261,0.033510935,-0.002114679,0.08093887,-0.13579863,0.17995255,0.1515211,0.07147176,-0.121746406,0.014688385,-0.18482889,-0.13055271,-0.09416196,0.025882734,0.10771626,0.052493174,0.06619107,-0.39064816,-0.064132996,-0.23726323,-0.003140708,-0.061870717,-0.026219906,0.049739204,0.20530353,0.020133585,0.13023244,-0.12887457,-0.043209083,-0.109373555,-0.33655444,-0.060824346,0.068619944,-0.004550555,-0.26199618,-0.08479616,-0.09850581,0.05111663,-0.05725484,-0.12246715,0.21377352,-0.26271975,0.37960258,-0.11152351,-0.047973774,-0.1979404,-2.6879327,-0.20444296,0.12206513,-0.07624886,-0.07807598,0.019669529,0.06142619,0.080719315,-0.19020759,0.093238905,0.19256315,0.21304215,0.10167978,0.011482352,0.02568015,0.0580148,-0.033952955,-0.08346569,0.07303347,-0.03320023,0.002665002,0.17555945,0.20246232,-0.16637386,-0.010957993,-0.020653471,-0.051708158,0.04840003,-0.18482934,-0.054507244,0.1903245,-0.07253243,-0.18880405,0.16271755,-0.01801853,0.0070761247,-0.26988676,0.13022532,-0.046768628,-0.027348157,-0.12924866,0.09453942,0.16299298,0.015674843,-0.02846199,-0.042230904,-0.051649824,0.014012202,-0.06334239,-0.08526718,0.02077379,0.025087764,0.043890312,0.15022613,-0.037337076,0.21143651,-0.2261375,-0.023924593,0.15316379,0.15636763,0.05538984,0.07124872,0.08391115,-0.23400491,0.07179264,-0.058924332,-0.2549689,-0.105910726,0.09235833,0.2691436,0.06377814,-0.20827796,0.27920708,0.06693337,-0.045743942,-0.053400844,-0.12777793,-0.10894631,0.09465815,-0.33220708,-0.035465095,0.09186064,-0.14931181,-0.06881087,0.002153092,0.1384936,-0.18648398,0.2841873,0.05790731,-0.10379875,-0.33476475,-0.32548422,0.025448851,-0.05986439,0.11173432,0.17134558,-0.13884693,0.0015641357,-0.06346065,-0.030418506,0.23338477,0.047767334,-0.09587064,-0.1946125,0.1380848,-0.22137707,-0.045337167,0.111851975,0.015062753,0.16602477,0.20570901,0.06262323,-0.21412693,-0.0015336687,0.16376156,-0.14616674,-0.07583899,-0.025309313,-0.015958808,-0.16110961,0.114725575,0.15951526,0.008681792,-0.017461704,-0.28071338,0.33741254,-0.04501632,0.10893991,-0.07067682,0.17820223,0.56894916,-0.049661696,0.40351447,-0.05746851,-0.13212569,0.21425325,0.057992537,0.3104818,-0.017121362,0.07163546,0.06913003,0.039327532,0.017776577,-0.09244237,-0.11969067,0.008326565,-0.0906974,0.09054118,0.060193222,-0.2205546,-0.1406251,-0.06984058,-0.0139283575,-0.028702784,-0.034681763,-0.16075003,-0.113446295,0.051052634,-0.24411555,-0.036378656,0.22860172,0.08877016,0.12954283,0.07285484,-0.08310157,-0.18517251,0.046944033,-0.03148819,0.048971727,0.06765221,0.05742451,0.026018117,0.02166182,0.058889914,-0.21517032,0.0033339444,0.077676,0.11672573,-0.017683465,-0.16027878,-0.048271034,0.10827025,-0.043725744,0.017731199,-0.014912186,0.1533857,0.026921991,0.0017935822,-0.1868355,-0.23348457,-0.10089708,0.008504841,0.05785513,0.09619664,-0.029811032,-0.067075625,0.120695814,-0.2541794,0.09409821,-0.14518508,-0.046131782,0.07117879,-0.045320537,-0.035210673,-0.21553949,-0.18181777,-0.087182276,0.007888437,-0.04546275,-0.031617936,0.12898934,0.06193691,0.24189878,-0.13096337,0.05859159,-0.09608907,0.25989726,-0.11051557,0.3117087,0.09284737,0.31877553,-0.0069953008,0.0073679388,0.14710376,-0.11693112,-0.15355948,0.17412384,0.0079200035,0.15262751,-0.33318093,0.08887998,0.048504565,-0.08204084,-0.047880933,-0.080825515,-0.022875683,-0.06638929,-0.10668556,-0.09838094,-0.011850729,0.23836714,-0.06535278,-0.027268719,0.04280245,-0.026842121,-0.24144262,0.072752066,-0.18547735,-0.086632326,-0.124613695,-0.033829406,0.15975368,0.06813328,-0.064983904,-0.09246265,0.15358973,0.05886979,-0.05031304
CalA(36),0.089780785,-0.097776785,0.10856786,0.024949465,0.19636168,0.013502982,-0.058239933,-0.15141444,0.011829455,-0.13385554,0.155165,0.036326647,0.08055647,-0.0064414795,0.18748738,-0.17319256,-0.034862567,0.10427738,-0.075473376,0.17177942,-0.09744351,0.25141764,0.06223893,-0.004415358,0.0971086,0.17542057,-0.00032768553,-0.13949606,-0.15188761,0.16876175,-0.15522498,-0.028209949,0.02157286,-0.058896426,0.09603259,-0.10220377,-0.0027821779,-0.16625404,0.07964077,0.05508027,-0.16291648,-0.022535881,0.07823824,0.003481369,-0.09703753,0.09534408,-0.8148153,0.14870591,0.010395994,-0.13090527,-0.075538225,0.008935656,-0.16905887,-0.041085932,-0.062142815,-0.067126624,0.20829563,-0.10499624,0.13767439,0.13210969,-0.08667401,-0.17098084,-4.6360273,-0.3061535,0.115148954,-0.098965436,-0.101958685,0.11240367,0.057760894,0.15671322,-0.023724573,0.21522334,-0.00570993,-0.05187028,0.077640876,-0.18034782,0.045844372,0.043574363,-0.020041192,-0.13568512,0.040081542,-0.049704995,0.016502239,0.09347545,0.115116715,-0.1399663,0.24147102,-0.19674346,-0.12992069,0.16604486,-0.13835278,-0.10047073,0.09679098,0.15813334,-0.16562857,0.28426012,0.014432841,0.050559614,-0.23054028,0.04714305,0.09076207,-0.10275083,-0.15287513,-0.011487365,0.017513528,0.015165658,-0.09759454,0.026824735,-0.03337758,-0.015062455,-0.027999125,-0.017854748,-0.099891104,0.037910033,0.026509363,0.0391085,0.11512774,0.25722432,-0.15762168,0.046016917,0.17119737,-0.0066131814,0.10997152,0.10717862,0.12809315,0.030536985,-0.050879635,0.0801081,-0.27959096,0.034722794,0.14440818,-0.12793593,-0.042604346,-0.16162783,0.31777027,0.08831896,-0.22648357,0.21926647,-0.116711654,-0.0147641525,0.20678377,-0.18468478,0.040079255,-0.11586752,0.05272449,-0.19131292,0.0986364,0.18073465,-0.3368123,0.07781113,-0.0394676,-0.1564507,-0.14566888,-0.15258057,0.1157597,0.19217527,0.0111345565,0.13174063,-0.06190437,0.12831753,-0.14572957,0.04538797,0.16805156,0.011183225,-0.0021479928,-0.08472622,0.19657965,-0.08487053,0.16778533,0.010510899,0.13396825,-0.023189493,0.0582811,-0.06976346,0.13534476,-0.008499398,-0.0046581584,0.039388277,0.04421503,-0.055777565,0.2465176,-0.31042224,0.019611998,0.10260129,0.016999548,0.17840487,-0.22344208,0.42221576,0.062262136,-0.21183158,-0.0856425,0.11324158,0.1698756,0.09683524,-0.022991495,0.16440882,-0.1309791,0.19313575,0.065432936,0.029371737,-0.21562666,0.2324646,0.1714645,0.08079769,-0.038441688,0.099243656,-0.041539043,0.21080619,-0.22889549,0.20096943,0.07361915,-0.21316674,-0.11285236,0.06656915,0.021640696,-0.039487835,-0.12886731,-0.03718941,-0.024973389,0.04732782,-0.25997993,-0.13267358,0.091964826,0.06821199,0.00280856,0.043097325,0.06038719,-0.0486856,0.029031472,-0.07181804,0.065963864,-0.09109329,0.02042169,-0.053570822,0.14037694,0.100880064,-0.12074825,0.074109405,0.10285983,0.081602596,-0.031758685,-0.053211417,0.07948464,-0.032605316,0.20770939,0.009171509,0.16332787,0.06604258,-0.048138913,0.08351332,0.060449436,-0.06086404,0.008638374,-0.01671934,0.022986773,0.14841807,-0.17560025,0.047902867,0.04533419,0.028909473,0.012795339,-0.014608552,0.07502461,-0.05008253,0.11982216,0.08349866,-0.1222868,-0.15454218,0.23051164,-0.12848027,-0.038065877,-0.026669934,-0.001995184,-0.03407678,-0.059504915,0.07199426,-0.06680261,-0.009429254,-0.009774798,0.019243713,0.02301511,-0.026741171,0.21286868,-0.05280205,0.2480264,0.30563113,-0.0936003,-0.23790564,-0.07103428,0.01807637,-0.10779604,0.0077838986,0.21652573,0.10525532,-0.072749846,0.10376929,-0.2885181,0.048098072,-0.1273236,0.1443818,-0.12200076,-0.027961021,0.110491015,0.10034684,-0.050414853,-0.34089148,-0.014653373,-0.30352843,-0.1336684,-0.09638341,-0.047052886,-0.06657494,0.0695404,0.09194421,-0.04923013,-0.2812935,-0.17445163,0.24106343,0.018208684,0.08697454
EH22(35),-0.03454539,-0.36015096,-0.058040813,-0.105412066,0.21494615,-0.07739325,0.20930596,-0.011788378,-0.50198287,0.055834763,0.2665823,-0.24412827,-0.08852872,-0.06843055,0.27941984,-0.4105323,-0.09300887,0.04214087,0.0059756692,0.11495557,-0.18169263,0.14692667,0.044844653,0.011015929,-0.07113926,-0.052007657,-0.08821662,-0.08701309,-0.10605973,0.06548528,0.07634924,-0.18171594,-0.0406245,-0.4864145,-0.096688055,-0.26387176,0.0055977036,0.040701184,-0.0044405796,-0.05320511,0.23405595,0.0870241,0.20773649,-0.04366535,-0.046078242,-0.08501004,-0.20670712,-0.080561794,0.089906745,0.010660417,-0.44925988,-0.07792307,-0.0471653,0.020156708,0.12801178,-0.113923065,0.2322674,-0.289131,0.4016351,-0.116639666,-0.026912801,-0.18773098,-2.6046023,-0.18093567,0.1570569,-0.1650702,-0.08985941,0.064042486,0.13713376,0.04257029,-0.11980169,0.0264904,0.11962848,0.24832454,0.039523527,-0.009350145,0.05061157,0.116257176,-0.0021502483,-0.1092647,0.083963126,-0.12522994,-0.14231254,0.28021443,0.22809616,-0.19986531,0.033469874,-0.033330478,-0.069376856,0.0924254,-0.19516982,0.045160078,0.14666647,-0.019818258,-0.16486773,0.16674364,-0.0054735476,-0.0447012,-0.2816666,0.22735061,-0.011500173,0.022580402,-0.14013076,0.18566282,0.17257255,0.07838549,-0.08024464,-0.094490245,-0.025047313,-0.023206096,-0.014335833,-0.18957633,0.0996351,0.020657979,0.09712069,0.09601708,-0.099468485,0.26988125,-0.19154985,0.10222017,0.17285363,0.1468234,0.06866161,0.30368328,-0.0909094,-0.30643466,0.06618416,-0.017298516,-0.28264403,-0.09936382,0.079894535,0.19714706,-0.0010588786,-0.21659905,0.3450377,0.05101419,0.032397687,-0.14600417,-0.07314896,0.012411122,0.070859544,-0.28805122,-0.07810817,0.18009934,-0.21552846,-0.07433652,0.06763185,0.18366602,-0.21677813,0.25781298,0.07107221,-0.0863739,-0.24424262,-0.33928892,-0.035336435,-0.15950893,0.13138339,0.12750378,-0.11270786,0.011633581,-0.15267335,-0.063401856,0.29918152,-0.04511537,-0.07311814,-0.16879553,0.19198066,-0.29869723,-0.0660219,0.061879236,0.17798163,0.13007578,0.089517355,0.12351469,-0.08193671,-0.08725498,0.12351349,-0.04113782,-0.034734715,0.14232412,0.10316622,0.0019391079,0.12423998,0.055824567,-0.055935614,-0.006752942,-0.23174371,0.33699816,0.073190145,0.06830142,-0.09007527,0.18187264,0.5553122,-0.049552992,0.33046806,-0.008702242,-0.06224357,0.15900964,0.016772445,0.2543145,-0.105463155,0.16259134,0.06887868,0.08821052,-0.12425334,-0.08264099,-0.15852037,0.44587108,-0.010104296,0.18481676,0.056785457,-0.22979708,-0.12084833,-0.012972882,0.06839952,0.0067490595,-0.079388395,-0.13407716,-0.11616991,0.08680574,-0.19449581,0.01173487,0.1686863,0.05717559,0.048704565,0.22306137,-0.11500847,-0.18626869,0.080391794,-0.15246265,-0.012150151,0.0960393,0.016333755,0.15837845,0.045639,0.010484456,-0.21707566,0.06820058,0.048819132,0.0117995655,-0.0024157376,-0.10163297,-0.04996577,0.027465863,-0.07485728,-0.010601719,-0.06505761,0.07902131,0.021777162,0.042539243,-0.22157663,-0.3742457,-0.094882645,0.015594501,0.11256658,0.12238007,0.026654126,-0.13307123,-0.08057848,-0.2988045,0.09542208,-0.2074804,-0.042640876,0.14986137,-0.09445672,-0.10148465,-0.28962684,-0.13919435,-0.2164498,0.04620491,-0.020512402,-0.07487765,0.14951727,0.12332391,0.3342355,-0.085707724,0.06398578,-0.10286773,0.22250119,-0.17964318,0.29126707,0.15807474,0.3192762,-0.035565,-0.047945358,0.0817809,-0.051093917,-0.22538973,-0.08548056,0.0047602756,0.21610136,-0.33214414,0.051569052,0.0074969884,-0.055154763,-0.09940779,-0.06734753,-0.02843641,-0.14851487,-0.09835194,-0.099938385,0.071668744,0.3169804,-0.09142752,-0.068821296,0.017754512,-0.043224502,-0.29014343,0.10707324,-0.21566807,-0.07139121,-0.12359934,-0.050800335,0.1677736,0.008600008,-0.053429358,0.056257132,0.24188088,0.105095804,-0.15319623
EH23(34),-0.05318293,-0.24403581,0.11840036,0.025821498,0.23566097,-0.051982496,0.06758709,-0.070135556,-0.21200156,0.025918191,0.1655622,-0.06912422,-0.09758406,0.044749647,0.22027361,-0.2965426,-0.016235597,-0.00470579,-0.06353759,0.1524482,-0.10263614,0.13807054,0.13735566,0.04205736,-0.094325714,0.042320468,-0.09040506,-0.06664226,-0.054200057,0.06047185,0.02632771,0.019375803,0.023230858,-0.16377881,0.032577276,-0.22205989,-0.017714974,-0.067152195,-0.061191197,0.05655662,0.08493406,-0.03752479,0.10533637,-0.09055555,-0.05346773,-0.057185296,-0.3875823,0.0002693408,0.078268826,-0.019219827,-0.25060046,-0.04248977,-0.070108905,0.07090503,-0.11505867,-0.11590359,0.25695112,-0.2296531,0.2853605,-0.06330061,-0.055120684,-0.31650716,-3.340899,-0.27802587,0.062155575,-0.08347735,-0.04982762,0.10739308,0.05395841,0.15436396,-0.04020611,0.11503823,0.15307371,0.20950252,0.1072867,0.022792818,-0.017184421,0.06187074,0.025818562,-0.07481786,0.036348328,0.0059929,0.0076186555,0.08784033,0.24432826,-0.115337536,0.09022151,-0.17339878,-0.056403253,0.044115018,-0.16683231,-0.0048337025,0.19915462,0.00373019,-0.22016035,0.1597257,0.017186603,-0.014118613,-0.2164367,0.17163914,0.0094251335,0.03167053,-0.11544647,0.08209471,0.16152516,0.0056518186,-0.0688056,-0.06302928,-0.044339247,0.06617365,-0.10146066,-0.02654387,0.06881877,0.029506188,-0.052885566,0.017253337,-0.007249233,0.3013479,-0.28154564,-0.06649651,0.06950507,-0.017243244,-0.0030790416,0.053766884,0.1271417,-0.14412561,-0.031681307,0.07357425,-0.23456122,-0.09009615,0.16999675,0.2169968,0.06275717,-0.23149906,0.29575092,0.086747296,-0.10433133,0.039942127,-0.086735524,-0.09263926,0.046879664,-0.21885805,-0.06530434,0.03636768,-0.14101264,-0.09610402,0.080048405,0.1962117,-0.32367235,0.3262232,0.04187917,-0.10022818,-0.24072547,-0.14082366,-0.058953203,0.03178919,0.06574633,0.04713924,-0.17007107,-0.05409718,-0.09205451,-0.060165215,0.2210808,-0.039626546,-0.021384459,-0.18911512,0.29270872,-0.12007647,0.030802945,0.0964985,0.039391257,0.10867582,0.2276106,0.0129652135,-0.09968097,-0.02367078,0.092887595,-0.05749917,-0.08283984,-0.012150479,0.089815795,-0.20260589,0.06518897,0.1717407,-0.08814609,0.12453031,-0.27783367,0.2994134,-0.10746028,0.06106187,-0.061545126,0.14297025,0.3811123,-0.013386273,0.23671797,0.07800249,0.03445568,0.21771127,0.00990633,0.37750086,-0.15185973,0.078090906,0.089477144,0.14216797,-0.038987216,-0.04405082,-0.20300078,0.098866284,-0.11289437,-0.03651816,0.08147247,-0.2642416,-0.06304814,-0.0017911039,0.047729094,-0.0011696233,-0.05374989,-0.12174493,-0.08403773,0.08630951,-0.2812953,0.039567932,0.19174147,0.059528045,0.047830418,0.10415864,-0.05600812,-0.11314545,0.08192849,-0.043172646,0.1514949,0.0015385273,0.06838683,0.07231895,0.044952314,0.06576145,-0.2007125,-0.033458337,0.026769092,0.09915965,-0.0013706099,-0.12320258,-0.12707978,0.10101815,0.05675889,-0.051758308,0.08955656,0.08625424,-0.103706926,-0.050717477,-0.121361315,-0.20808485,-0.09160365,0.047180485,0.043040775,0.20280112,-0.062610745,0.07781677,0.123426974,-0.22397877,0.08527373,-0.10301515,0.025988108,-0.0038265388,0.060968846,-0.07164288,-0.15819483,-0.24190672,-0.007385704,-0.07531232,-0.104744874,-0.07911161,0.10037159,0.009794445,0.18748108,0.036354836,0.069307454,-0.12373261,0.16862176,-0.08147449,0.31112486,0.06866056,0.16990557,-0.045719344,0.14225154,0.13953157,-0.116340026,-0.24263647,0.082165,0.012366215,0.02122249,-0.24759798,0.11469057,0.06164941,-0.06892204,-0.005346183,-0.12822558,-0.00471107,-0.10164042,-0.08377928,-0.09659295,0.06446287,0.21424395,-0.0028958225,-0.033425514,-0.023309926,-0.040686663,-0.26111478,0.042597804,-0.14506686,-0.1127816,-0.088127576,-0.02488135,0.14465837,0.08211687,-0.223771,-0.09320128,0.23892277,0.03728525,-0.0133473575
EH24(34),-0.032559067,-0.06685332,0.22364385,0.09656405,0.22525571,-0.17476279,0.03949748,-0.17935811,-0.30537063,-0.06885062,0.08772003,-0.26704252,0.088389315,0.085383356,0.26474327,-0.41991422,-0.29301786,0.14540282,0.08444813,0.08489015,-0.1473476,-0.080981135,-0.11863274,-0.01773428,-0.060458757,0.07061773,-0.100487396,0.05655266,0.16010971,-0.056942128,0.17416966,0.11946889,-0.106036216,-0.41324332,-0.051088456,-0.34029886,-0.08151822,0.12635265,0.10525053,0.10740232,-0.035215147,0.023508182,0.052552298,-0.07841353,-0.18580724,0.019711819,-0.5938917,0.1831721,-0.08668276,-0.059676025,-0.005521205,0.003240925,0.037450116,-0.008395029,-0.032844227,-0.22968233,0.23232149,-0.14799307,0.3387247,0.02266845,-0.15211125,-0.10642096,-3.3500617,-0.1940548,0.052283153,-0.13648291,0.11604889,0.0535467,0.028815193,0.020324579,-0.058345627,-0.074020974,0.11914302,0.30483857,-0.111826696,-0.045294255,-0.123944946,0.12878896,0.06995893,-0.078725055,0.26751384,-0.087816335,0.10441025,0.3256532,0.121502034,-0.20238653,-0.103160396,0.12947926,-0.07421676,0.21183553,-0.2538729,-0.16999252,0.09061701,0.11867418,-0.18344559,0.08805852,0.078509234,0.018029995,-0.10605785,0.1547704,-0.034055524,-0.030288806,-0.1751544,0.20327066,0.032340385,0.17422824,-0.07811887,-0.09333799,-0.08647117,-0.10479713,-0.19992921,0.05671579,0.016657574,-0.022679236,-0.0022894898,-0.05898398,-0.07316615,0.1306785,-0.12122234,-0.2463113,0.059976127,-0.06665219,-0.08842412,0.19904062,0.10869172,-0.03380182,0.055328134,0.02501003,-0.20551945,-0.08838084,0.12510008,-0.1119858,0.046348345,-0.20825428,0.4670189,-0.07855486,-0.34426835,-0.14549522,-0.12337289,-0.20748036,0.24707459,-0.075595945,-0.11097231,0.24580541,0.06548228,0.025907954,-0.053521004,0.16695437,-0.16464703,0.27469158,-0.029891392,-0.075905755,-0.33078435,-0.3304366,-0.041842993,-0.1174659,0.025777001,0.16133851,-0.12898752,0.20622183,-0.008615006,0.062482927,0.33095118,0.018472563,-0.14329048,-0.021214398,0.09985592,-0.31285346,0.092865914,-0.052696597,0.12897915,0.08638379,0.12435196,-0.030081825,0.017859655,0.05122238,0.11237191,-0.2639552,-0.013731869,0.16074054,-0.0018840089,-0.01345703,0.1233505,0.081838116,-0.2892999,0.09698264,-0.25021586,0.29071298,0.07335769,-0.01914955,-0.11435035,0.20130004,0.4208116,0.20609239,0.19641721,-0.04126631,-0.17123859,0.1474388,0.2533611,0.09385198,0.0016227413,0.46916372,0.004913627,0.002340367,-0.28911394,0.26156166,-0.0411009,0.25244877,-0.07617162,-0.031180192,0.073685765,-0.21961305,0.032338254,-0.14976527,0.046413884,0.046569206,-0.14824295,-0.096252844,0.16974385,0.1317348,-0.35768944,-0.0145726055,0.4278839,-0.03695176,0.044654366,-0.057987288,-0.14074716,-0.22199447,0.06931417,-0.18857943,0.20662397,0.012874171,-0.11594698,-0.0039947103,0.033232052,0.02873546,-0.15776362,-0.1302803,-0.020634644,0.21378532,0.08698577,-0.013684385,0.017024364,-0.26705128,-0.028818257,-0.2566562,0.07725429,-0.0155587755,0.031186765,0.06504963,-0.23662235,0.056408677,-0.11904168,0.06621383,-0.105371006,0.025226027,-0.05145353,-0.11129119,0.10720163,-0.10366049,-0.1035121,-0.16011648,-0.010016084,-0.06549301,-0.12661614,0.025718465,-0.1646501,-0.12963906,0.023011679,-0.1255709,0.15961495,0.27493513,0.048505574,0.056772698,0.12350255,0.04264203,0.19250558,-0.04782967,-0.038900837,0.026703512,0.056466397,-0.023846962,0.40036938,0.0737917,0.18666765,0.022183886,0.056661323,-0.105766684,0.14696051,0.07419262,0.021049814,-0.07602822,0.10754645,0.01705536,0.21629348,-0.09575952,-0.07587232,-0.0688155,-0.18733296,-0.061232183,-0.03119359,0.12052639,0.032404605,0.065550074,0.123866886,0.031779584,-0.048635915,-0.23639834,-0.007262398,-0.018648906,-0.008265538,-0.026445536,0.07951593,0.16627981,-0.07652926,-0.097011656,-0.20431814,0.3915689,0.085971124,-0.1420848
